1133 16
105 -0.20793861 0.45608675 0.306154 0.055182293 0.040448442 0.49376523 0.11282557 0.14595643 0.7951432 0.8043366 -0.22487578 0.053987358 0.5127066 -0.2124311 0.17454201 -0.41199556
333 -0.57550967 0.17976055 -0.18060634 -0.19078016 -0.40715626 0.48655918 -0.1327807 -0.04587172 0.29665637 0.6410399 -0.29655758 -0.23061395 -0.33465654 0.23758596 -0.33583015 -0.6204108
23 0.10578245 -0.7105957 -0.3665042 -0.41524804 0.15977862 0.17922418 0.12110925 -0.2877685 0.46091944 0.41732964 -0.034683377 0.11343159 0.36135733 0.2632089 -0.15160456 -0.1723984
42 0.09766995 0.23856261 -0.05850585 -0.38793513 -0.4018878 0.8364939 -0.07376503 -0.041628458 0.5894118 0.46376833 -0.2431875 0.29121074 -0.45022455 0.5888509 0.009364298 -0.13462546
41 0.1312122 -0.3053149 -0.2329037 -0.45319924 0.08964295 0.4746304 0.3866026 -0.16656856 0.12494133 0.09678654 -0.47371814 0.33478406 0.67470485 0.7135427 -0.15659858 -0.12412411
16 -0.6048187 0.30222943 0.32373983 -0.27157775 0.5179323 -0.13412163 0.19309759 0.41714275 0.8813709 0.9554531 0.38633233 0.00026684406 0.4921746 0.054523878 0.16808715 -0.09812268
196 -0.217808 0.28037375 0.62846035 -0.08536041 -0.10708308 0.010725234 0.02274685 -0.2615238 1.2063726 0.8146803 0.22607957 -0.40105972 0.4262963 -0.12700123 -0.014846384 -0.16670008
233 0.37278995 -0.47387916 0.004108123 -0.373786 0.0026335998 0.07336563 -0.10647017 0.31338188 0.53516835 -0.13604972 0.53136665 -0.42867124 0.62021244 0.4502106 -0.5182942 0.078090176
76 0.26418054 -0.08533171 0.85764503 -0.35918105 -0.021395491 -0.34205317 -0.8147893 0.518969 0.058429416 0.34019005 -0.4745317 0.20994458 0.32993537 0.6277051 -0.1731102 -0.23821208
21 0.14482366 0.12140461 -0.3242293 -0.00027972623 0.5300317 0.30032614 0.7797591 0.047161985 0.68765944 0.22163096 -0.3109415 -0.13904862 0.6356441 0.7857294 0.14932536 -0.16631019
24 -0.3724496 -0.12229842 0.15958795 -0.71153855 0.3813317 -0.8231726 0.4027606 0.8025504 0.57947975 0.98114663 -0.015453288 -0.48570096 0.34363672 0.26810402 -0.28894436 0.03444478
135 0.22272034 -0.28983265 -0.0516706 -0.5150146 -0.5910129 0.14261232 -0.44933397 -0.33881512 0.47024095 0.11524362 -0.14943007 -0.049229667 -0.038682267 0.67088675 0.33848366 -0.4515305
355 0.34265178 -0.18117149 -0.523746 -0.7411352 -0.31454745 -0.2655696 0.5455083 -0.02073462 0.24059215 1.0061775 -0.34359995 -0.247722 -0.43246996 0.61613804 0.1778471 -0.5543653
354 0.098308675 -0.42444006 0.36022925 0.0830077 0.09107146 0.43344617 0.13829 -0.4156265 -0.03637878 0.46339595 -0.4646445 0.87141824 0.000437169 1.0176222 -0.3323023 -0.56258935
134 0.11771102 -0.5038755 0.011678272 -0.37173742 -0.6525319 0.34963572 -0.15117496 -0.13483308 0.21916905 0.04895526 -0.45907018 -0.3188733 0.6284216 0.5344499 -0.5184529 -0.010535471
49 -0.014771535 0.13206522 0.58486974 -0.17999701 -0.06327862 0.3082173 0.25427818 -0.03159295 1.1337172 0.5564527 -0.17956625 0.045464043 0.5752145 -0.11794979 -0.098336354 0.10305587
578 0.6669572 0.49247098 0.10998882 -0.111762896 -0.77184325 -0.3698551 -0.6495877 -0.22942793 0.46256447 0.43049815 0.15980215 0.58572954 0.4524407 0.4693015 0.33222702 -0.34658527
52 0.0633252 0.026997212 -0.12082408 -0.22072768 0.059798017 0.124114744 0.108555935 -0.67777514 0.23112318 -0.025619177 0.01131338 -0.0634558 0.19669814 0.77947265 -0.5914931 -0.6154384
72 0.27657792 -0.4361142 -0.2915743 0.25959194 -0.2685226 0.1435702 0.46946836 0.77910066 -0.54467076 0.54140097 0.21615456 0.4865856 0.5715693 0.82055384 -0.8816867 -0.35619545
204 -0.27215227 0.24104516 0.5362858 0.052229572 0.14762138 0.37753746 0.1542405 -0.110747434 1.0413948 0.77743185 0.46099564 -0.07671186 0.56102544 -0.24019681 -0.020953495 -0.34562844
378 -0.071798384 0.14623849 0.24503191 -0.70939976 -0.37596762 0.9562321 -0.26569593 -0.023883736 -0.07883187 0.091176406 0.14812459 0.100413516 0.6678813 0.5002053 -0.0027439634 -0.04272949
332 0.39539838 -0.0661656 -0.041847263 -0.4067134 -0.010894793 0.54710186 -0.17684627 0.38280964 0.72506535 0.11627531 -0.1605987 0.30332983 -0.6264565 0.40975097 -0.5938281 -0.56218696
3 -0.40821946 -0.34491074 -0.22405052 -0.35489425 0.7597326 0.3884451 0.20339568 0.24778852 0.36471912 0.31948194 -0.11621483 0.20674607 0.59403026 0.63403726 -0.071057886 0.03855311
116 0.04054885 0.12344485 0.70021844 -0.15608932 -0.37629375 0.07065892 0.26975843 0.27065226 0.94524145 0.664772 0.36705157 -0.38775128 0.85707176 -0.4092858 0.1785777 -0.35601258
14 -0.5102118 -0.07698313 0.5288539 -0.8954575 0.093140334 -0.7300509 -0.280531 0.5449976 0.6548533 1.0360192 0.04383579 -0.5340645 0.15471478 0.6522224 -0.18257049 0.49651492
564 -0.11337977 -0.13646083 -0.5657288 0.18561466 -0.7567248 -0.37256977 -0.99888736 -0.36228794 0.25573242 0.57553554 -0.24128601 -0.5210584 0.7290906 0.34604636 -0.9740644 -0.60693675
46 0.057799533 -0.40021604 -0.7221669 0.41864687 0.09563525 0.042428244 0.5093559 0.4444518 0.12557326 0.16743489 0.014874254 0.3542206 0.56819147 0.8717771 -0.5218686 -0.4143106
183 0.26768738 0.46634933 0.76280653 -0.5396819 -0.46489325 -0.34186307 -0.4187897 0.89254594 0.21708308 -0.023513911 -0.74595207 0.35330433 0.091662936 0.77760607 -0.03500755 -0.4922923
128 0.064131945 0.13235317 0.1758716 -0.4072343 -0.021611286 0.28294986 0.03677496 -0.073268875 1.1266142 0.53461915 0.31988996 -0.37163344 0.5450382 -0.30359718 -0.120926306 -0.0138809495
396 0.028096655 -0.14859012 0.10567222 -0.541785 -0.48611796 0.35987967 -0.294479 1.0642486 0.26593557 -0.20068076 0.41619265 0.5723705 -0.4909008 0.8683098 -0.22988668 -0.7425483
58 0.2880682 -0.35218167 -0.3743805 0.18406491 -0.16697213 -0.7005247 0.84218067 0.8782682 0.3940271 0.90437686 -0.054355875 0.011579982 0.30474904 0.3795576 -0.77324957 -0.05469434
434 -0.007878935 0.05499095 -0.2685906 -0.80830693 -0.06420977 0.6225409 -0.32130608 0.85490245 -0.031479325 0.27412686 0.49096894 0.28729355 -0.47083178 0.3182014 -0.26702076 -1.1693007
140 0.24251063 -0.53811353 0.23917031 0.45437422 0.11288324 0.24434727 -0.50342935 0.40385965 0.27727634 0.3998253 -0.28264812 0.64371306 -0.3291605 0.74773943 -0.25491872 -0.95459867
56 -0.49546954 0.26604378 0.22309181 0.37763527 -0.08735768 0.38225612 0.21759726 -0.08732392 1.2123134 0.70617425 -0.09084444 -0.1572982 0.36106357 0.1235897 -0.0692955 -0.067008965
429 -0.07262879 0.36526057 -0.79419875 -0.5369269 -0.1355067 0.10703622 0.060327135 0.18420234 0.43596047 -0.5201471 0.28239897 -0.40055683 0.78957653 0.16323903 -0.39642277 -0.91943187
106 0.31436843 0.45063844 0.24969812 -0.52772546 -0.14579506 0.5476181 -0.13244006 -0.36247554 -0.6039607 0.6647228 0.061426263 -0.03339206 0.92341757 1.0391876 -0.5924214 0.18117401
454 0.040158514 0.25720444 -0.04087914 -1.1170762 -0.13457984 -0.40531367 -0.32704005 -0.09201575 0.09646383 -0.45957908 -0.20627014 0.61196434 1.1518916 0.4206473 0.18106765 -1.0237598
137 0.42240664 0.083998024 -0.23724684 -0.54252315 0.092010096 0.09134165 -0.23120473 -0.21806245 0.53969675 -0.3339643 0.30244365 -0.22419444 0.59918696 0.55845946 -0.40499204 -0.21661913
356 -0.11484721 -0.060037855 -0.09643827 -0.36326787 -0.47116193 0.9702299 0.73609316 0.50900406 0.26810613 0.14047936 0.18472071 0.44686776 -0.56211 0.8051402 -0.25427645 -0.7022305
10 -0.49370563 0.10224803 0.045385964 -1.0770931 0.45223093 -0.78155077 -0.059281286 0.70690215 0.58942205 1.0077205 0.01340216 -0.3543058 0.53556734 -0.006150405 0.14220397 -0.12998448
54 0.10660057 0.2703606 0.44613704 -0.5075167 0.2037702 0.1571068 -0.10076999 0.0713676 -0.048378024 0.27072066 -0.9604443 0.15737045 0.57831335 0.60783935 0.08990696 -0.57404196
120 -0.24723113 -0.20867243 0.5871912 -1.0454768 0.053383246 -0.83174944 -0.38062295 0.59828615 0.69092953 0.7788502 0.058968227 -0.620889 -0.039430268 0.48653105 -0.49328294 0.23053394
341 0.7637402 0.18358713 -0.33297127 -0.31699836 -0.2262711 0.13134658 -0.7088127 0.8074811 0.795473 0.52708465 -0.40202498 1.1171325 -0.24046455 0.2072267 -0.071314454 -0.35177374
376 -0.6397089 0.060507953 -0.7042302 -0.94583863 -0.6859568 0.24500896 -0.35436788 -0.4575855 0.3586002 -0.21558037 0.2667972 0.51085675 0.6984831 1.0695935 0.5671346 -0.3182234
460 -0.7664569 0.11097543 -0.971597 -0.046317797 -0.5402982 -0.04591185 -0.78696305 -0.3413388 0.5891842 0.03100282 0.16741028 -0.7310324 0.6463227 0.79475516 -1.2961229 -0.38411242
299 0.18920282 -0.086164616 -0.25637484 -0.738124 -0.26773205 0.7059234 -0.4541369 0.8053344 0.20866483 0.25516227 0.4002082 0.3305423 -0.47897118 0.046481453 -0.58253914 -1.0553961
45 -0.44723356 0.002512975 -0.548171 -0.21610926 -0.04134652 0.467251 -0.03342422 -0.20987877 0.015632786 0.48835003 -0.7442961 0.047455747 0.42083997 0.77059066 0.051049013 -0.33862412
69 -0.17326486 -0.22102897 -0.29050866 0.8063069 -0.3520799 -0.39625758 0.22391245 1.0285032 -0.12292711 0.5193456 0.3786975 -0.03825923 0.60022366 1.2242193 -0.085631326 -0.56541663
237 0.342492 -0.32120293 0.438111 -0.96360797 -0.12268434 -0.40982494 -0.095980406 -0.41773647 0.2900637 0.05142992 -0.09070522 -0.29264036 0.44419128 0.68369126 0.040292624 -0.31870574
588 1.0679384 0.09665919 0.41195327 -0.5175901 -0.50864816 0.22703488 -0.29621923 -0.57268286 -0.21749328 0.42419612 0.58983034 -0.22328426 1.0297772 0.7508108 -0.19908495 -0.21835275
468 -0.33027288 0.0002759534 0.13596436 -0.11522769 -0.7341581 0.30488732 0.088563174 -0.30380425 0.32495606 0.94307286 0.37833062 0.30847123 -0.3110921 0.33619893 0.65356266 -0.94012755
367 0.05532557 0.0071475296 -0.062113978 -0.59592867 -0.22079815 -0.46928248 0.83543074 -0.39572296 0.18461476 0.59430695 -0.16069148 -0.16714604 -0.14216699 0.52992356 0.042354483 -1.1559715
316 0.4004998 -0.17918687 0.17529139 -0.48620656 0.016835244 -0.013378917 -0.007431524 -0.27403867 -0.5964739 0.49269736 -0.21815424 0.29969567 0.20081708 0.8655558 -0.5229347 -0.74204665
182 -0.17184427 -0.18977714 0.04472401 -1.1047347 0.3593215 -0.68184084 0.04554468 -0.24555196 0.65484273 0.3897866 0.20396064 -0.71120834 0.2723694 0.49847227 -0.5800579 -0.0071896273
205 -0.7980743 0.59912014 0.6310296 0.007541147 -0.18044005 0.061439946 0.25331843 0.4197871 0.97495174 0.8744118 0.5084241 0.3510259 0.6444143 -0.29918757 -0.10383159 -0.4195788
1 -0.58911896 -0.522914 -0.10985907 -0.50212425 0.9475021 -0.1467441 -0.20525943 0.38036603 0.4918505 0.4323254 -0.0313129 -0.0063740443 0.5941083 0.6606094 0.120821714 0.0034868126
185 0.32950205 -0.088555664 0.59766686 -0.15836883 0.29787645 -0.4422072 -0.50748295 0.25023222 0.31920484 0.7842263 -0.71137154 0.8102425 -0.07890261 0.5107104 -0.028421579 -0.57533675
241 0.23978339 -0.46533117 0.1338986 -0.087008655 0.098563135 0.115945294 -0.08049934 -0.57878554 0.011242631 0.2351107 -0.10932052 -0.20434985 0.36794725 0.82584745 -0.57637244 -0.49229702
219 -0.70088214 0.49954918 0.4211367 0.2393043 -0.08582021 -0.1575999 0.24837252 0.69145215 1.0631031 0.7677192 1.0241779 0.2507904 0.46748182 -0.28297815 -0.1247094 -0.8300192
57 -0.016494894 -0.5026751 -1.1641349 0.42454275 -0.37774873 -0.42827925 -0.021036714 0.4279165 0.17055066 0.5303909 -0.19232413 -0.06307603 0.76628166 0.6641917 -0.91441905 -0.39145634
452 0.86032975 0.24338733 0.22953932 -0.5416718 0.08055623 0.43187886 -0.061739385 -0.5030518 -0.5924923 0.5257354 0.19325411 -0.19294019 0.6612677 0.7586149 -0.91852015 -0.45340753
19 0.070803486 -0.5814474 -0.07174804 -0.70236176 0.7124725 -0.08028461 -0.37427926 0.15759656 0.46030173 -0.22349161 0.34915513 -0.30426767 0.90720665 0.6879245 -0.2482251 -0.02597504
143 0.1533352 -0.55293113 0.33209687 -0.45712128 -0.0024132773 0.5555861 -0.6141114 0.35413122 0.5414679 -0.10435584 0.47075477 0.7468958 -0.49984643 0.3535507 -0.9156941 -0.746985
504 0.95261514 -0.24059635 0.022600077 -0.13855533 -0.30292127 0.5135055 -0.4736109 0.8503899 0.62586397 0.086977385 0.23368526 0.04014397 -0.50155866 0.37461436 -0.56955254 -0.72042215
198 -0.54809177 0.85550123 0.6218032 -0.16446148 -0.020088373 -0.29010445 0.23366907 0.43622783 1.0499285 0.73972905 0.62383395 0.42812935 0.4277921 -0.2087778 -0.32885343 -0.45234227
39 0.28859556 -0.2868453 -0.62756085 -0.12096126 0.328574 0.5468885 0.29876715 -0.060222592 0.52205855 0.4223976 -0.15322438 0.0061073806 0.111371964 0.73935723 0.18589763 -0.24724752
483 -0.0806107 -0.16489342 -0.99105716 0.2534649 -1.4480405 -0.68439615 -0.124800175 0.23775962 0.26686814 0.42600027 0.06235183 -0.29793337 1.0648376 0.6217748 -1.3583302 -0.3768294
152 0.28360713 -0.90192086 0.67559385 0.12186842 0.34701937 -0.19048323 -0.5324439 0.025696132 0.52860284 0.4391156 -0.04963617 1.1844225 -0.124465816 0.6217193 -0.01858659 -1.12296
201 -0.36004376 0.23746696 0.3174425 -0.16133709 0.1612537 0.62370497 0.24278823 -0.018787924 1.3378161 0.5059712 0.009236534 -0.24965462 0.5359669 -0.13523412 -0.08853113 0.015458219
243 0.7367705 -0.5779668 0.22814144 -0.33746988 0.09973154 0.41763234 -0.25357795 0.15121438 0.53795826 -0.054386426 0.48564684 0.08690202 0.16190879 0.23485067 -0.6407081 -0.30800766
206 0.13305101 0.07412777 0.6481422 0.2662024 0.18764566 -0.09817915 0.37522042 0.23842295 1.1484817 0.7328157 0.021108506 0.099422604 0.54687834 -0.16139066 -0.19010958 -0.222243
7 -0.8168984 -0.2808997 0.085584864 -0.9203717 0.5003486 -0.270691 -0.14153443 0.30206317 0.31482327 -0.045096744 0.3159645 0.59653777 1.1192545 0.55697596 0.34860823 -0.15898083
40 -0.068025425 0.16306263 0.2348959 0.2826961 0.14044504 0.25296748 0.77530473 0.06526379 0.6163651 0.6835689 -0.640241 0.20525442 0.28890917 0.61769366 0.07794676 -0.17947295
212 -0.73372227 0.55893 0.5908542 0.3936892 -0.07265781 -0.2949604 -0.028946366 0.16857469 1.3748631 0.85606366 0.9363639 0.34288347 0.33569628 0.2715795 0.29136705 -0.38188887
389 0.2681999 0.13943645 -0.24075918 -0.96831894 -0.08579925 0.7161203 -0.50930315 0.88223165 0.15244141 0.28690082 0.40678698 0.59472823 -0.40745217 0.19608654 -0.394049 -0.8542882
552 0.06853664 0.03985919 0.019011678 -0.69803053 -0.4187914 0.8436071 -0.4208554 0.9919744 0.28272277 0.18959358 0.53060186 0.3329724 -0.44221306 0.00092655944 -0.49291104 -1.2046944
80 -0.40659827 0.26063854 1.1327524 -0.14403112 -0.0025283778 -0.33086538 -0.5011531 0.08382091 1.0162673 0.32065699 -0.07958353 -0.08535342 0.5435966 0.04626549 -0.3670156 -0.15559553
573 0.34671932 -0.6481291 0.5519727 0.145139 0.11871414 -0.123304576 -0.5226532 0.22483085 0.50718427 0.7853645 -0.6217777 0.9461083 -0.19756898 0.5672094 0.107542515 -0.741424
30 -0.45971233 0.11759802 0.0313195 -0.9536027 0.2206937 0.02622862 0.25398377 0.15733169 1.1740506 1.1031853 0.1700292 0.09545644 0.7375282 -0.3721977 -0.060399055 0.46825933
62 0.46056664 -0.7800362 -0.42222753 0.50879216 6.868667e-05 -0.35860473 0.07880025 0.8081935 0.39203936 0.60065323 -0.47422978 0.7825336 0.3076785 0.48884365 -0.5219359 -0.33146623
339 -0.40060937 0.086428955 -0.12887463 0.21965465 0.089603275 0.16102251 -0.53990483 -0.8453427 -0.44808134 1.1595341 -0.261567 0.23868403 0.5800196 0.6813796 -0.8702518 -0.43053487
146 0.34504405 -0.6758113 0.41660905 0.039512277 0.4828715 -0.10177577 -0.4163106 0.07282026 0.36216858 0.04672243 -0.26754555 0.89982504 -0.15476583 0.9313012 -0.4224325 -0.94101906
38 -0.065124944 -1.1432972 0.45006233 -0.33949545 -0.09704414 0.37008172 0.3129375 0.04210367 0.1703048 -0.16461922 0.2925137 -0.5243318 0.79449564 0.95711017 0.024467858 -0.21965568
269 0.34105548 0.0861473 0.41951546 -0.021253288 -0.17374822 -0.29543033 0.019214433 -0.53909314 0.9225263 -0.28718293 0.03267269 -0.24222842 0.8768888 0.7492107 -0.28625295 -0.082769595
50 0.09384519 -0.2075667 -0.27495924 -0.18956344 0.33254105 0.6237012 0.15998827 -0.40566272 0.26094684 0.4084887 -0.1098478 -0.016773269 0.18430427 0.76175785 0.029650908 -0.3583309
13 -0.87790227 0.0030245562 0.11840986 -0.58901423 0.5341336 0.30863154 -0.15285201 0.690461 0.05233426 0.28481334 -0.092566654 0.057194714 0.44587314 0.9006236 -0.15086187 0.1923488
274 -0.09622997 0.14548175 0.7114033 -0.09198115 -0.4912332 0.3228013 0.3073374 0.32590118 1.2218245 0.6786623 0.3320719 0.04715669 0.5003262 -0.36648592 0.20201409 -0.22941156
660 0.74377465 -0.020558635 0.5504084 -0.029592361 -0.72640264 0.29671425 -0.14488563 -0.24709064 -0.5112676 0.861218 0.02652888 -0.19195917 1.2191997 0.47455874 -0.16134024 -0.35773733
415 0.23193918 -0.4908039 0.2710225 -0.34072128 -0.27955043 0.43534648 0.0010174435 -0.38847044 -0.7594233 0.6500002 -0.039823107 -0.024970528 0.55260974 0.7308629 -0.6571542 -0.57956344
303 0.8639446 0.14150374 -0.14061227 -0.44583905 -0.7199147 0.54436016 -0.48135364 0.40271363 1.25998 0.58034176 -0.09099483 0.41816863 -0.3693411 -0.12098061 -0.068214305 -0.10621633
393 1.1268845 0.15079774 0.038496796 -0.38682464 -0.60583186 0.50956047 -0.20515053 0.801821 0.87665606 0.26101127 -0.037770484 0.14257258 -0.3362716 -0.07198436 -0.7775562 -0.43601176
268 0.32402152 0.23407656 0.31747144 -0.25739297 -0.074465826 0.30571827 0.3185806 -0.42016047 -0.43191594 0.6689685 -0.541371 0.39447868 0.54042965 1.1337601 -0.59208643 -0.05857682
94 -0.18396005 -0.60644704 -0.006723128 -1.0975442 -0.41120693 -0.001799831 -0.29583588 -0.51932794 0.26907682 -0.45923102 0.47002554 0.16279761 0.8625304 0.68192655 -0.1291931 -0.26264462
215 -0.33024096 0.7848371 0.688314 -0.15622555 -0.010933518 -0.06797871 0.3719989 0.29219753 0.9943732 1.1696447 1.0468211 0.30767736 0.46023104 -0.16127953 -0.038595736 -0.36858118
532 0.20718603 0.05366182 0.20595333 -1.0299481 0.055326268 -0.42391822 -0.26832756 -0.40878004 0.2665607 1.0028638 0.36931717 -0.50836027 -0.016669987 0.20342699 -0.2315969 -0.24219494
81 -0.09686672 -0.1439676 0.027486525 -0.33559328 0.034653064 0.63918674 -0.33403257 -0.42228025 0.08533399 -0.1143513 0.07851397 -0.38586527 0.78077614 0.56866384 -0.5053247 -0.37464258
210 -0.07159788 0.25668472 0.62099445 0.15442742 0.09670896 0.37311155 0.43226954 0.10979296 0.868239 0.74917054 0.06268986 -0.18401526 0.6359584 -0.11947106 -0.276187 -0.12981643
554 -0.073953174 -0.33205703 -0.56665343 0.07602031 -0.37843725 -0.113551624 -0.9674419 -0.5725539 0.27792037 0.32491982 -0.087934986 -0.34978414 1.1342399 0.05773114 -0.9183245 -0.7447477
390 -0.5177783 0.7075464 0.74838024 -0.25283745 -0.39708546 0.29702345 0.0066997902 0.040951043 1.0316473 0.79251 0.22426538 -0.27021652 0.15025233 -0.105031095 -0.20831989 -0.18743871
2 -0.6687057 -0.5764644 -0.06386987 -0.664909 0.9024785 -0.053848576 -0.08864282 0.71646774 0.37798148 0.508541 0.12862682 -0.02830688 0.917837 0.68080103 0.1521713 0.2880826
70 0.21822709 -0.42842376 -0.08834305 -0.9416237 0.4119455 -0.7040495 0.2653888 0.52474123 0.29583257 0.56308746 0.51733094 -0.6374109 0.3829116 0.7156192 -0.30235377 0.11257453
287 -0.4192542 -0.629093 -0.14652897 -0.63803554 -0.22675061 -0.94712514 0.61013204 -0.1983333 0.6332335 0.46354213 -0.47246367 -0.75723356 -0.00025514414 0.4184063 -0.4672598 -1.0149409
598 0.14153466 -0.5235524 0.15971082 -0.9377633 -0.4176411 -0.17112744 -0.8659274 -0.77782404 -0.078623764 0.027135527 0.45402 0.82427496 1.2145164 0.48692888 0.37213048 -0.81172526
590 0.07187619 -0.4253009 0.070744 -0.8454148 -0.23464885 0.8335879 0.22562009 1.1232302 0.7032168 -0.5051866 0.67715806 0.3362269 -0.481898 0.7836157 -0.60051984 -0.69264364
82 0.13474782 -0.12256345 -0.06279094 -0.9249822 0.042429768 -0.2847136 -0.4548651 -0.2353453 0.65868515 -0.1043327 0.5478259 -0.64970636 0.48354548 0.4333477 -0.5664857 0.022344055
329 -0.002288991 0.51220036 -0.3474506 -0.28164622 0.47650892 0.10025396 -0.33337337 -0.042512756 0.36560228 0.4684084 -0.5144479 -0.20243572 -0.42712787 0.40105087 -0.22055034 -1.3115914
368 0.30784744 -0.6625191 0.021356957 -0.10851188 -0.3979461 0.3752023 0.36498135 -0.7194079 -0.17778382 0.64216644 -0.20795073 0.45064014 0.662178 0.83745885 -0.44960395 -0.07026393
327 -0.46610287 0.6920758 0.7799528 -0.41803193 -0.30944175 -0.2801767 -0.06304898 0.0772027 1.2435734 0.7916976 0.490049 0.16580124 0.2567976 -0.09636274 -0.02830166 -0.12948658
200 -0.6988965 0.48175657 -0.207539 -0.26462173 -0.023251435 0.6074239 0.13563792 0.5858211 0.35554048 1.178967 0.13961639 -0.09304092 0.29060715 -0.49989036 0.08490966 -0.80852973
384 0.506949 0.68967724 -0.30610734 -0.32836792 -0.7987803 0.43148732 -0.6539866 0.39499488 0.95898193 0.39831933 -0.5218892 0.5355571 -0.48340625 0.16529779 -0.08308944 -0.60356575
446 -0.39059198 0.012745 0.65098006 0.19589674 -0.12543795 0.22948696 0.3337366 -0.028258367 0.8105431 1.1998931 0.25952974 0.16239183 0.6669946 -0.44449383 -0.21274464 -0.32027
213 -0.2026231 0.2823544 0.21719326 0.6557816 -0.17948927 0.034658164 -0.1922595 0.1965221 1.3853388 0.6305379 0.13951056 -0.12838022 0.7607459 0.08114233 0.4443964 -0.15709952
322 -0.07748916 -0.16154365 0.7122974 -0.543897 -0.22950135 0.48839462 -0.030264014 0.006997725 1.0491817 1.1749446 -0.18916199 -0.028214041 0.33795625 -0.48547465 -0.5234828 0.46835437
90 -0.40513572 -0.376081 -0.7760278 -0.15650094 -0.8539631 -0.28277785 -0.025466643 0.96501774 -0.17716606 0.08303587 0.3283211 0.9543462 1.060672 0.91826314 -0.02521267 -0.2738804
218 -0.045657124 0.8550818 0.3715126 -0.6234828 0.14440075 0.18898548 0.12043879 -0.15124477 1.0366358 1.0470908 0.4526426 0.18931516 0.52269775 -0.03448382 0.49241424 -0.018360201
194 -0.16044784 0.12293726 0.7610213 -0.1673952 -0.13993979 0.24859177 0.17223106 -0.08008555 1.0505707 0.7880314 -0.0750544 -0.24011461 0.47282174 -0.30032077 -0.35035986 -0.06286783
51 -0.041247606 -0.41663614 0.51558423 0.39663675 -0.30705827 0.56898373 0.27427384 -0.72669864 0.26514518 0.23524132 0.00047701635 0.12811849 0.9938737 0.475002 -0.46555868 -0.31092685
381 0.579953 0.1470206 -0.06921458 -0.76119083 -0.7580072 0.5445712 -0.6378297 0.59459114 0.990745 0.06275196 -0.12024803 0.34126014 -0.58567375 0.21435325 -0.35257003 -0.37083668
271 -0.1608761 -0.22743751 -0.20855428 -0.42049253 -0.19051829 0.7197764 -0.15834872 -0.02349291 0.050965033 1.1203862 0.46183488 -0.27769235 -0.67046154 0.7716799 0.042911746 -0.16930935
4 -0.0987297 -0.7033874 -0.7937907 0.18312094 0.19214047 -0.2710733 0.21551108 1.0526872 0.09475586 0.6395859 0.039771672 0.13316119 0.9035834 0.7751526 -0.34627095 0.1238066
131 0.062104043 0.41604072 -0.057099245 -0.5384415 -0.66367316 -0.11637909 0.100976236 -0.037031535 0.6246802 -0.59478074 -0.07189417 -0.6191842 0.80353266 0.8553498 -0.5091561 -0.10133083
31 -0.42845672 0.3339233 -0.18700768 -0.19443388 0.2976439 0.7325578 0.13063316 -0.48254168 0.50233704 0.32156083 -0.55350095 0.005828299 0.14811052 0.5891774 -0.11729706 -0.47996116
73 -0.5489373 0.18159911 -0.38480842 -0.26384553 -0.14804727 0.5393005 -0.86769456 0.09473787 -0.16345167 0.12589702 -0.39124143 -0.1887407 0.8298413 0.4687734 0.10235546 -0.75087154
549 0.2704711 -0.33290097 0.6131155 0.08555016 -0.58378804 -0.08375857 -0.53929657 0.32805303 -0.37828827 0.49892583 -0.04040281 -0.9957985 0.6900765 0.33550674 -0.35552672 -1.048531
313 -0.038017873 -0.24283153 0.038170658 0.42721754 -0.30805886 0.68621176 -0.8379458 0.22706003 0.58702517 0.25927263 0.38739386 -0.122559264 0.22843671 1.3407682 0.9971295 -0.34989694
687 0.29174462 0.9776959 -0.4096491 -0.17091148 -0.075532295 -0.3275906 0.09151503 -0.24856937 0.26886442 0.103856444 0.59958386 -0.33245856 0.37841615 0.29776174 -0.40340322 -1.2170566
401 -0.9347388 0.9378459 0.88759017 -0.23835912 -0.38084975 -0.3568654 0.306545 0.019112734 1.1110237 0.77531487 0.56687415 0.31668583 -0.02878306 0.12673536 -0.5961284 -0.39338744
331 0.10216552 0.5817833 -0.48798326 0.14491746 0.21102196 0.33487177 -0.3097624 -0.1386074 0.22191153 0.7075867 -0.8182641 0.10139817 0.24767062 0.10076715 -0.4164163 -0.8682482
27 -0.03216539 -0.59693754 -0.12685117 -0.4942851 0.8344147 0.1116289 -0.39714894 0.24779955 0.3210647 -0.14210488 0.623297 -0.5441521 1.0844166 0.46579462 -0.11663678 -0.4609123
726 0.060638268 0.22491956 0.014186491 -0.89434606 -0.38308686 0.7085521 -0.66373086 1.1854229 0.2521179 0.2509118 0.36210442 0.5456624 -0.50452256 0.10419739 -0.53234005 -1.0724386
85 -0.6984553 0.14752507 0.8449119 -0.36262587 -0.10022865 0.09453917 0.06429825 0.37001595 1.0935806 0.7857903 1.1325604 0.4800054 0.15618603 -0.21362677 -0.2153072 -0.32000905
612 -0.73608124 0.24082124 -0.5979173 -0.37682426 -0.6744264 -0.19378506 -0.42584828 -0.5289661 0.8815996 -0.039733175 0.086797826 0.76430285 0.77501607 1.8695594 0.23627378 0.5279831
775 0.28775695 0.8828319 -0.62281066 -0.23700245 0.59119874 0.23797888 -0.0240935 0.26521662 0.7506882 0.17987446 0.661302 0.6148582 0.37692595 -0.12434481 -0.7992515 -0.67403466
591 0.09231487 -0.3535584 0.3223676 -0.6652153 -0.18680033 0.7962564 -0.024317643 0.72418743 0.75988775 -0.1373685 0.36169285 0.5479626 -0.72445685 0.56141156 -0.43814495 -0.7236634
724 0.32134485 -0.08323135 0.36334926 -0.8464866 -0.34890857 0.4181762 0.34797835 1.1729033 0.42199984 -0.21496645 0.43115303 0.6071129 -0.696916 1.0322739 -0.24200298 -0.9113699
74 0.24580848 -0.26972795 0.6003102 0.09672406 -0.12504606 0.05155541 -0.46669805 0.26189172 0.41198662 0.21277152 -0.08447009 -0.640664 0.36617756 0.0110053755 -0.38832402 -0.80967534
282 0.18156603 -0.49106124 -0.89407974 0.3027046 -0.19554617 -0.2669925 0.38222206 0.7467825 0.16909452 0.4411259 0.32763025 0.3702656 0.9850378 0.7211018 -0.5455018 0.024710916
585 0.46084785 -0.10099808 0.21850246 -0.613353 -0.7199165 0.47900835 0.111134216 -0.08306333 0.4934106 -0.4015791 -0.49758816 -0.59479195 0.7612162 0.54736876 -0.6368623 -0.035245262
543 -0.42398095 0.4971128 -0.5568046 0.07011194 -0.22670175 0.402348 -0.3110399 0.055871997 0.5611584 0.23092075 -0.508056 -0.2492252 -0.24752772 0.13994049 -0.31601137 -1.3797376
214 0.31909373 0.109095514 0.363932 0.08719272 0.24480294 0.18952657 0.47475135 0.10170227 1.1009191 0.3977146 0.06623891 -0.1946865 0.54542714 -0.2504135 -0.17774272 -0.5786209
239 0.49064255 -0.35895687 0.20663808 -0.67075515 0.48204967 0.26333654 -0.33658534 0.5792896 0.6273089 -0.32632545 0.46163794 -0.22097324 -0.21788368 1.0492746 -0.66262865 0.018012865
308 -0.40548787 0.27250963 0.5360049 -0.5304692 0.399062 0.23388356 0.18675713 -0.05503306 -0.63064593 0.30725658 0.31993163 -0.38317454 0.8656924 0.78150916 -1.2283283 -0.36934313
6 -0.75132483 -0.4875526 0.3508704 -0.6865814 0.8456462 0.1731595 -0.47872517 0.3228865 0.45712382 0.03851801 0.27383703 0.15784957 0.6492692 0.51595974 -0.23027833 0.025545904
142 0.6068165 -0.51184916 0.5104592 0.036375217 0.13675834 0.3231938 -0.3055345 0.26638547 0.47254163 0.19978386 0.22859432 0.747723 -0.32580832 0.83910716 0.04497474 -0.7656196
147 0.110545166 -0.5418468 0.71308357 0.2529305 0.2157598 -0.12580925 -0.66731834 0.36974657 0.412543 0.1901139 0.1704001 0.72754943 -0.30356768 1.1238872 -0.19343974 -0.62904495
568 0.37981412 -0.48547316 0.91593945 -0.3555694 -0.6449621 0.24763253 -0.23238248 -0.4712565 -0.3510681 0.49522015 -0.0046154647 0.076138854 0.98356336 0.57960224 -0.13887124 -0.32526472
467 0.64309585 -0.032675683 0.42699495 -0.57257897 -0.7516015 0.3461088 -0.44274703 -0.21564107 -0.5364558 0.83418673 0.14907905 -0.22942662 0.7521218 0.6136021 0.31928995 -0.39334056
495 0.1761219 -0.34441552 -0.31193376 -0.7253332 -0.33798146 -1.1401376 1.080483 0.0042726006 0.22316267 1.0161877 -0.21860753 -0.379968 0.040872827 0.48955932 -0.22589794 -0.9989874
193 -0.5300916 0.26613888 0.5569956 -0.12300859 0.17563222 0.030133406 0.474326 -0.09787124 1.0946056 1.043536 1.2029543 0.50671595 0.3417883 -0.25811788 -0.33462504 -0.4838196
11 -0.1637518 -0.41902086 -0.5859454 -0.34165317 0.42822826 0.321377 -0.5119021 0.3366402 0.46178496 0.14003351 -0.14922777 -0.39419904 0.9334672 0.7158065 0.13201283 0.17551328
410 -0.13976485 -0.088624135 -0.4991945 -0.7376167 -0.2883302 0.8127985 -0.41426528 0.58256835 0.21056645 0.28280067 0.085315846 0.687872 -0.56007093 0.14142598 -0.644945 -0.9858159
25 0.07296374 -0.96597093 -1.0028604 -0.31072193 0.26816916 0.04969552 -0.32730857 0.48036456 0.8695376 0.32593328 -0.30090395 -0.10768477 0.2856483 0.103609934 -0.049477633 -0.30780128
321 0.13947664 0.4083495 -0.31625083 -0.79592234 -0.02716319 0.32985088 0.4398385 -0.27554706 1.3100468 0.5586782 0.099464916 -0.09968837 0.7926245 -0.49819213 -0.2307816 0.074865535
725 -0.36231628 0.26686013 0.39574662 -0.39664644 -0.12143252 0.7784678 0.07937728 0.7637585 0.61619306 0.55007523 0.7905806 0.36741006 -0.34124264 -0.3722429 -0.69015425 -0.9346214
93 -0.28324726 0.31812364 0.38269955 -1.1537557 -0.16947365 -0.60529715 -0.3884592 0.23238572 0.28335914 -0.0506478 -0.4463538 1.1270536 1.4381115 0.01840556 0.2638883 -0.7914929
59 0.3173623 0.056912735 -0.68156797 0.554161 -0.33898658 -0.4315671 0.6987277 0.87034464 0.22817428 0.31810173 -0.23348904 0.26898867 0.8594032 1.2042983 -0.73030925 0.04950255
150 0.44505355 -0.7457692 0.47775382 0.26388967 -0.0012748488 -0.07980064 -0.51362264 0.4874976 0.14647369 0.41074952 -0.17985833 0.90541714 0.0357193 0.7685386 -0.24787547 -0.568624
757 -1.3781713 -0.20032348 -0.8832483 0.32212767 -0.75973845 -0.017832324 -1.1921666 0.18589765 0.9036662 0.4683008 0.0072104586 -0.45939463 0.5483993 0.8177791 -1.3402084 0.013497338
112 -0.28140622 -0.31586188 0.064457975 -0.8882061 -0.16723266 -0.63814664 -0.06382955 0.47032213 0.3171833 1.4856006 0.11873175 -0.54710466 -0.4240022 0.66170186 -0.320277 0.29245287
458 0.055383604 0.40552947 0.3397912 -0.0589112 -0.40888196 0.64595795 0.097023904 -0.20626107 -0.38565424 -0.3795028 0.36084524 0.040362168 0.8223746 1.238319 -0.6029369 -0.640253
439 0.4875092 0.22186811 0.40241852 0.066319935 -0.29953116 0.25474995 0.31168002 0.46121436 1.2650605 0.8316381 0.14359716 -0.14609309 0.37824973 -0.40274277 -0.29202035 0.01761893
267 0.38316643 -0.7967558 0.28087133 0.28825295 0.10918625 -0.29289213 -0.6098165 0.21869974 0.64331275 0.83675414 -0.6021941 0.94034797 -0.15955362 0.43115136 0.052521206 -0.806458
15 0.19741292 -0.028234696 0.78447276 -0.9652809 0.25750697 -0.62335247 -0.5049895 0.5409961 0.20100553 0.3054299 -0.5563193 0.27798507 0.7373723 0.5472662 0.146763 -0.061598036
65 -0.15528049 0.0017483439 -1.484745 0.34059387 -0.5425099 -0.12900749 -0.28636473 0.8229756 0.12192139 0.6703837 0.15576522 0.39221275 1.0114723 0.53347605 -0.93866587 -0.06544996
314 -0.14985892 -0.24474339 0.31090686 0.44004506 -0.057793755 0.44871935 -0.37470803 0.0115808 0.16464344 0.55128115 0.26556015 -0.5474825 -0.4195099 1.2471308 -0.021730656 -0.7512942
756 0.01018362 0.24605249 -0.24288937 -0.9245074 -0.15251301 0.7695532 -0.41990238 1.098672 0.09959238 0.2853545 0.78338873 0.51521033 -0.47277015 0.24468632 -0.64317745 -0.985536
255 0.069246754 -0.48055363 -0.6632889 -0.76209 -0.13605742 -0.54135996 0.9171215 -0.3064626 0.47173712 0.8110266 0.20584424 -0.3691206 -0.11432435 0.40300384 -0.15223446 -0.71180785
34 -0.6584891 -0.07531673 0.36152577 -0.9052024 0.91120625 -0.45102176 0.3169813 0.44346267 0.32759643 0.7409868 0.07816679 -0.21776305 0.75806946 0.4013152 -0.3270257 0.08148614
698 -0.43718266 0.9616913 0.2053593 0.27896494 0.035813913 -0.54077166 0.2801704 0.24024057 1.3843834 0.6906098 0.6732952 0.4143982 0.4400107 -0.16091485 -0.5388329 -0.5777901
216 -0.33578455 1.0029882 0.58135056 -0.037180994 -0.09838537 0.12714745 0.29602912 0.48712993 1.0625209 1.1465006 0.68172413 0.07827489 0.43833235 -0.15999107 0.043733004 -0.33485958
289 -0.4267553 0.9547439 0.55148077 -0.19702949 -0.2996706 -0.32401276 0.28739396 0.45033008 1.0680796 1.0782293 0.72963876 -0.28665525 0.45612317 -0.03425405 -0.13934925 -0.12050057
335 -0.24348143 0.74475646 -0.026967026 -0.23452546 0.32711872 0.65542024 0.076439165 -0.505762 0.9303022 0.563893 -0.20852968 -0.241711 -0.011906982 0.19038951 -0.04620756 -0.5769712
466 -0.0766839 -0.06480895 0.61513096 0.2087514 -0.38033026 0.17814167 -0.4447199 0.66131884 -0.19627577 0.062357754 -0.35151076 -0.66471815 0.2651797 0.99116296 0.0007250483 -1.0439762
155 -0.1150906 -0.3393927 0.38466766 -0.4832412 -0.7509326 0.5263788 0.11722466 -0.12498875 0.037414756 -0.12413799 -0.436867 -0.6150995 0.7103899 0.82642585 -0.21703315 -0.27490523
358 0.3884005 0.17690428 0.071150854 -0.5598642 -0.13227391 0.59663564 0.32112423 -0.48770434 -0.6792609 0.59785277 -0.16405365 0.36359787 0.64302474 1.0461159 -0.4720428 -0.23673008
427 0.015107088 -0.8139219 -0.47275418 0.7884523 -0.9128575 0.09976994 -0.31921703 0.6471651 0.3481393 0.53833026 0.588311 0.96129733 0.8178655 0.70795584 -0.75640357 0.14251746
351 -0.17422801 -0.86976177 0.05404576 -0.32074663 -0.40990224 -0.06655375 0.30580387 -0.26070365 0.043129507 -0.09828073 0.16036004 0.06663087 0.6030684 0.33990875 -1.1710428 -0.55205
176 -0.54707146 0.53202355 0.95740813 -0.5902676 0.13309468 -0.6296141 -0.35729742 0.016222684 0.76623553 0.8085679 0.3568488 -0.6143419 0.09816476 0.34207526 -0.6216141 -0.081607744
340 -0.416617 0.082711 0.489502 -0.1308952 0.12667973 0.2941147 0.009620004 -0.9892605 -0.13319589 0.46807075 -0.24300028 -0.0033441086 0.13278745 1.3948879 -0.7246774 -0.35195154
18 -0.47632048 -0.855442 -0.3868695 -0.42683515 0.83694243 0.33805415 -0.16066034 0.23302548 0.35733235 0.27206203 0.027706437 -0.32409352 0.6770726 0.8255908 0.18009143 -0.14329815
730 0.61546963 -0.34686515 0.0010606042 -0.589319 -0.7790709 0.8846208 -0.06868549 0.8363635 0.47914997 0.2103353 0.39490527 0.3461148 -0.4328567 0.043957047 -0.92937213 -0.48635674
489 -0.2846524 -0.5813915 -0.21697359 -0.59587866 -0.61064225 -0.66964215 0.79691374 -0.22050323 0.22535625 1.1995703 0.061227296 -0.42592356 -0.2465223 0.1834378 -0.26786143 -1.0122461
500 0.44872338 -0.51703227 -0.3559859 0.30131587 -1.0549203 0.31205362 0.19306813 1.1203041 -0.3310238 0.6805247 0.76505005 0.3065625 0.83190864 0.5652486 -0.42695573 -0.13098508
259 -0.7468984 0.12087285 -0.14175098 -0.11585051 0.09105471 0.7489494 0.5523951 0.0021172068 0.5762233 0.5673963 -0.12519397 -0.3009754 0.49435365 0.02925303 0.18874413 -0.6339716
284 -0.22104286 0.12297659 -0.442487 -0.32370213 0.08504962 0.6566816 0.00882276 0.3854012 0.71057266 0.12914456 0.016014813 -0.17415039 0.022586334 -0.33255985 -0.2097183 -1.204675
145 0.49763736 -0.7624364 0.15581475 0.016141584 0.23558713 -0.10011249 -0.37428382 -0.040735032 0.27947792 0.64720577 -0.65861076 0.88861805 -0.12376874 0.66981626 -0.2799565 -0.6179985
270 -0.47391483 -0.86256903 0.08178701 -0.44317588 -0.41884035 0.78228784 0.31195873 -0.06643645 0.41468194 -0.5346329 -0.4033713 -0.02661503 1.0235354 0.27945173 -0.92605966 -0.34635246
12 -0.088366404 -1.0584965 0.57111347 -0.08528829 0.47166458 0.12701222 -0.5099739 0.3133165 0.60608625 0.16017227 -0.112426005 0.9652919 -0.3060751 0.93929255 -0.1486805 -0.64430314
501 0.21444733 -0.041806273 0.059911024 -0.49122426 -0.4886591 0.4244883 0.2220975 0.6139957 -0.33493057 1.0706483 -0.13031672 -0.5586497 0.970709 -0.09900117 0.7194529 -0.6501491
413 0.2479686 -0.095969655 -0.30298662 -0.92103606 -0.37409496 0.65437645 -0.5242047 0.5007319 0.3935793 -0.32418537 0.059010915 0.37232426 -0.2660091 0.277561 -0.7066644 -0.6751375
64 -0.0073799146 -0.4699662 -1.0149357 0.46141583 -0.49001783 -0.28393418 0.30902863 1.0423684 -0.047775816 0.64648706 0.017939752 0.28554577 0.94338864 0.7526265 -0.45328292 -0.28725326
594 -0.51365894 0.118200734 0.8552696 -0.1630979 -0.043704685 0.11058039 0.5181198 0.18142763 0.8640404 1.1485996 1.1748785 0.48902354 0.62902087 -0.46282855 -0.11077839 -0.69577587
238 -0.18101823 -0.6534007 -0.7636537 0.10332747 0.21013801 -0.23760083 -0.59815353 0.0011390686 0.5532899 -0.04969823 0.05849512 -0.41839346 0.89931595 0.35790455 -1.0895652 -0.4658385
44 0.15352717 0.015570948 -0.49003813 -0.6523901 -0.16289523 0.88168985 -0.22442007 0.20378843 0.62134457 0.046553236 -0.10506946 0.787599 -0.36481178 0.23563787 -0.6061947 -0.50680053
240 0.8534545 -0.4024469 -0.7284108 -0.26496077 0.5783541 0.11374084 0.08588907 -0.10863602 0.9512001 -0.068649285 0.57354534 -0.15850489 0.6294686 0.6100578 -0.3618117 -0.018482722
470 -0.10482245 -0.1501964 -0.2570357 -0.078427084 -1.0129762 0.5531985 0.65471995 0.626828 -0.010310246 0.8699648 0.3523207 -0.32875994 0.5665889 0.15521091 0.5300744 -0.44988373
124 0.31016687 0.53904295 0.45022863 -0.66748255 0.35948333 -0.94889754 -0.45448115 0.77533174 0.22574888 0.8877468 -0.44684187 -0.28364632 0.32732528 0.4915702 -0.453349 0.0066106636
654 0.8999134 0.043348126 0.39981392 -0.7502324 -0.5969818 0.06028042 -0.5147843 -0.52411616 -0.55666405 0.8835534 0.5178071 0.043376803 1.0956905 0.69589216 -0.002649391 -0.2148478
20 0.059220083 -0.50532216 -0.31279266 -0.42152005 0.5765995 0.5936318 -0.36423928 0.060305595 0.165051 0.3361828 0.07449171 -0.24112575 0.8580414 0.7560674 -0.07824277 0.267378
9 -0.37375635 0.06619549 -0.050731257 -0.6024947 0.72070706 0.060709827 0.33552134 0.39815181 0.39256358 0.61543936 -0.15596126 0.018709982 0.893317 0.57375467 0.27028805 0.26445854
507 0.31531236 -0.76602334 0.12292064 0.106242165 -1.1511366 -0.0029800455 -0.107011385 0.8331206 -0.20374689 0.57555175 0.7243269 0.9010104 0.4083013 0.7450354 -0.5045298 -0.0033963064
484 -0.43893415 -0.25952476 -0.53772086 0.40738317 -0.8038575 -0.20238857 -0.659663 -0.29794824 -0.08259502 0.41518813 -0.32261705 -0.48082665 0.81891435 0.7917803 -1.2044986 -0.77315307
189 0.29559076 0.569818 0.64835125 -1.1262803 -0.3136677 -0.42595047 -0.6132822 0.24170385 0.21871077 -0.128627 -0.6192214 0.87085396 0.7925499 0.3893885 0.11877333 -0.6508006
361 -0.17044632 0.21767917 0.8268024 0.09775414 0.05233255 0.19214717 0.3113222 0.13964398 1.3858237 0.77184707 -0.22139221 -0.20580022 0.28191978 -0.04962276 -0.31258127 0.03664725
362 -0.17656523 0.16865501 -0.020148145 0.41589463 0.1457127 0.071929015 0.02064569 -0.024158258 -0.2242032 0.21854708 -0.38594747 -0.036821682 0.41087556 1.4793098 0.00035176874 -0.8538326
392 0.60377294 -0.16519195 -0.028899698 0.059361886 -0.17066 0.27683 0.27227804 -0.61887175 0.21884695 0.9260425 0.2713478 0.16726728 -0.2994293 1.1881231 -0.15706934 0.0365205
344 -0.14878541 -0.41687414 0.731955 0.060174443 -0.6274556 -0.017673586 -0.06870687 -0.20789887 -0.29956087 0.79925233 -0.01790554 -0.80044115 0.75224966 0.3402156 -0.3425148 -0.68079656
382 0.6836873 0.3695736 -0.009948546 -0.49344796 -1.1535558 0.5097732 -0.4489137 0.60089266 1.2675351 0.45275718 0.01047739 0.75012964 -0.31010747 0.03660847 0.3242664 -0.22888853
486 -1.0798067 -0.112767346 -1.2227417 0.27959877 -0.8595738 -0.29650104 -0.6221571 -0.19485898 0.4479375 0.5902874 -0.16152948 -0.49472913 0.7304657 0.8344618 -1.3269281 -0.46854258
117 0.15939711 0.0021526548 0.3173604 -0.7100064 0.2675345 -1.0017056 -0.8585293 0.37006417 0.49185532 1.0399998 -0.30276626 -0.31248856 0.1546863 0.7041308 0.051394567 0.14400005
107 0.105612226 0.10462774 -0.3155055 -0.28621432 0.44944108 -0.13416089 0.68306834 0.39126974 0.83459413 1.001117 -0.09404123 -0.6096351 0.31123444 0.20570758 0.03832704 -0.07456106
334 -0.393382 -0.4912342 -0.5957712 -0.36768883 -0.71329814 0.2702141 0.15289204 -0.85211545 0.66512644 -0.13786343 -0.02370636 0.7738155 0.6056575 1.1592232 0.39627957 -0.19730087
711 0.57123005 -0.025544325 0.040502597 0.06426473 -0.36967853 0.18133865 -0.24073079 0.54005355 0.72824365 -0.227885 0.16173418 -1.1229581 0.27165365 1.2172867 0.4532651 -0.44379318
68 0.050235786 -0.2546111 -1.0792392 0.20998578 -0.5387394 0.06575119 0.3978912 1.1108853 -0.08715106 0.47429597 0.43843246 0.12986451 1.1654211 0.6140605 -0.2664649 -0.23009974
545 -0.585249 0.41775978 -0.3354468 -0.059272937 -0.15966433 0.15563042 -0.68819916 -0.2777556 0.28443003 0.85537034 -0.7164533 0.16851644 0.38964194 -0.278437 -0.12422934 -0.9935212
227 0.03507016 -0.44017568 -0.43230447 -0.5356264 -0.045134272 0.5774989 -0.15704562 -0.3892306 0.30017096 0.70333195 0.12999797 0.1614147 0.35291016 0.10440364 0.14070882 -0.14960885
404 0.22486228 -0.18972145 0.53366864 -0.0053307796 0.25683138 0.96274877 -0.50780857 0.17195235 0.21859169 0.7418668 0.28667858 0.08356515 -0.0072732 0.5402319 0.43158272 -0.3952352
584 -0.76665366 0.7856954 1.037241 -0.64190644 -0.47881934 -0.9181976 0.20754445 0.23097512 0.9652763 0.8109672 0.16498065 -0.14358722 0.22356941 0.20627116 -0.418885 -0.24878684
420 -0.45142713 0.5375302 -0.597382 0.017527878 0.29484668 0.5047345 -0.122351885 -0.05021533 0.642921 0.3329581 -0.4371329 -0.1245901 0.30030462 0.083990164 -0.31276482 -0.77476245
199 0.13729064 1.2028644 0.34829718 -0.33768278 -0.3388908 0.0072123306 0.34355032 0.705238 0.7346952 1.0436435 0.7618937 0.16346535 0.29741877 -0.13807724 -0.01763631 -0.2970879
104 -0.14726485 0.5139517 0.027652826 -0.49612084 0.18696037 0.5635994 0.14118962 0.015779555 0.756445 0.6662021 -0.1098705 0.037590113 0.3799619 0.25654617 0.5693093 -0.027813315
136 -0.46149132 -0.10805939 -0.29158247 0.2930514 -0.14164478 -0.1918389 -1.0553952 -0.08948003 1.1633141 0.7806585 -0.23562473 -0.25037682 0.691596 1.134452 0.25911283 0.91804796
542 -0.0003401218 0.27343273 -0.3775713 -0.51561254 0.073003285 0.6622878 -0.23250102 1.0575944 0.0053006834 0.38609156 0.47302786 0.43610013 -0.38129193 0.1100519 -0.6703299 -1.2453997
409 0.09188024 0.012512951 -0.34060714 -0.8258872 -0.4082859 0.7768541 -0.3052481 0.11687335 0.15823367 0.45995602 0.16273068 0.66564316 -0.6985929 0.0843897 -0.8541227 -0.973445
481 0.31463972 -0.04443296 -0.7470232 -0.28853852 -0.87254316 -0.13558462 -0.52289885 0.048611484 0.26255316 0.41552088 -0.75823706 -0.5588275 1.0886195 0.37725103 -1.2109808 0.023013642
464 0.33433846 0.327274 0.2649293 -1.3402812 -0.42758057 -0.44027123 -0.26297298 0.120799035 0.23430157 -0.28873262 -0.8528145 0.55368376 1.2455424 0.4539181 0.51697576 -0.9204014
485 -0.21019983 -0.5248427 -1.1594065 0.20897521 -0.7075384 -0.14638959 0.053435408 1.2455121 -0.0225456 0.71601427 0.18448336 0.39397526 1.1977537 0.6296559 -0.32399207 0.015949382
709 -0.011754655 -0.13751364 -0.72008425 0.1411444 -0.75525916 -0.060913946 -0.71070665 -0.023953507 0.33756712 0.33922356 -0.7709734 -0.4910939 0.9763443 0.06037064 -1.1682919 -0.712393
207 -0.50009984 0.5744488 0.474699 0.107049175 -0.06967683 -0.14830378 -0.059961587 0.0985267 1.5491433 0.763518 0.3004914 0.2107362 0.5582013 -0.1439973 0.18816638 -0.19308163
512 0.31691584 0.95404077 -0.80385715 0.18081993 0.23672193 -0.050028376 -0.43727788 0.60805905 1.0690601 0.5237243 0.56676203 1.2487705 0.08124929 0.20020448 -0.8607719 -0.21506707
67 -0.17421442 -0.6783881 -0.5650235 0.31250137 -0.2569835 -0.79200125 0.4993424 0.8002768 0.49506953 0.78741026 0.6871305 0.44177857 0.9951431 0.16257633 -0.9187157 0.008048668
256 0.55465287 0.5353521 -0.12697738 0.20053887 -0.49906516 -0.3126677 0.41312397 -0.31809992 0.6996831 0.064848326 -0.06710619 0.30291238 1.2207764 1.6715469 -0.13344261 0.57708263
254 0.0038214333 -0.4968877 0.07479166 -0.27161083 -0.5398729 0.38843092 0.34436756 -0.32122433 0.60821676 -0.28708634 -0.16929509 -0.45081386 0.7994788 0.6258831 0.108006895 -0.3249114
203 0.2591872 -0.45491615 0.09984698 0.08373398 0.338935 -0.00289992 0.3806703 0.28735098 0.94567084 1.0120536 -0.50228935 0.7964709 0.14428246 -0.15710959 -0.19490553 -0.23034956
186 0.3351955 -0.1611838 0.41361612 -0.18028975 0.11334686 -0.06412446 -0.6353982 0.7315811 0.4428844 -0.46475422 -0.19413544 -0.59516084 1.1025946 0.34938473 0.1733088 -0.896529
168 0.0053669265 -0.28195304 0.6807117 -1.3142283 -0.22384885 -0.5644933 -0.20283808 0.27069914 0.5892685 0.98317355 -0.34001955 -0.55334365 0.22105438 0.34035692 -0.39577594 0.5270735
443 1.2308805 0.067775995 -0.6261066 -0.008102164 0.5513252 0.38142458 -0.008723312 0.44152543 0.7919191 -0.06787064 0.72491956 0.32684 0.36601442 0.46085432 -0.44050574 -0.47876996
22 -0.50579566 -0.7396336 -0.24713717 -0.49075365 0.8444389 0.2553139 -0.18816042 0.6286686 0.2737124 0.29508975 0.11586856 0.030018307 1.0001423 0.7596374 0.123976454 0.19764897
55 -0.550676 0.014197239 0.0724553 -0.22474056 0.16370855 0.5120892 0.65105134 -0.017718451 0.9432908 0.8303708 -0.28451625 0.08897292 0.50893694 0.12953913 0.18954442 0.10071016
305 0.3010783 -0.10396913 0.35607618 -0.5811489 0.17388377 0.63334525 0.094649255 0.41882765 0.34364823 0.07115972 0.60380363 -0.7845989 0.72500044 -0.1319991 -0.4808602 -0.43879882
248 0.7749669 0.66113377 -0.72108054 0.08025311 0.83183867 0.21453579 0.21029434 -0.16296211 0.6608317 0.51257294 0.45595717 0.4697697 0.18417214 0.5759173 -0.64239556 -0.36500385
592 -0.007275134 0.37814456 0.7033189 -0.007035322 0.0013836081 0.05325761 0.041086737 0.39213333 1.0292048 0.9813244 1.3136015 0.38420486 0.02601002 -0.4558518 -0.712031 -0.6689558
202 -0.3116786 0.3919904 0.19800566 0.05304702 -0.1449411 0.821719 0.59099287 -0.3071644 1.3272262 0.18221676 -0.2558223 -0.3073459 0.5104061 0.28529328 0.031242548 -0.15148792
84 0.0005853618 -0.6248975 0.72449595 -0.28422508 0.35125118 0.35077035 -0.42232436 0.36648744 0.43935868 0.1616535 -0.24338715 0.8883332 -0.39791876 0.8000173 -0.3476627 -0.56099135
352 1.1416218 -0.33921728 0.71672505 -0.45773602 -0.6317402 -0.036407493 -0.42550296 -0.21262869 -0.4352138 0.6613806 0.4407971 -0.074482724 1.1327196 0.9534986 0.0623918 -0.16247965
399 -0.2505766 -0.05860315 -0.044987418 0.05859754 -0.35636193 0.5835089 0.7632654 -0.20631401 0.6950705 -0.3233182 -0.5640877 0.21784067 0.087398194 1.2419635 -0.5750014 -0.12798415
603 -0.09314165 0.0067830174 0.07430879 -0.33384708 -0.62378573 -0.17771672 -0.520767 -0.035560455 0.09649626 -0.57144296 -0.19384451 0.87448007 1.4760888 0.5000004 0.13134706 -0.953393
765 -0.22447273 0.22557165 0.6636111 0.38513586 -0.7236388 -0.16760242 -0.629234 0.85606694 -0.0099640675 0.09476135 -0.17025794 -0.68272334 0.5004927 1.444647 0.6064783 -1.0584066
235 0.400732 -0.18569554 0.5229177 -0.33185375 0.49941412 0.54717636 0.007562117 -0.027776727 -0.53803575 0.16315937 0.36450607 -0.31553218 1.1801658 0.65962505 -0.64569813 -0.54161
127 -0.31613243 0.48907843 0.99872875 -0.14087601 -0.13357806 0.023964677 0.26721027 0.7793241 0.731114 0.9710088 0.53899944 0.15603076 0.7321037 -0.3238516 0.18938026 -0.50846076
447 -0.22916494 -0.42798945 -0.8660143 0.35029045 -0.42324805 -0.14133301 -0.8301916 -0.37242734 0.15541658 0.49466228 -0.30048266 -0.40547806 1.3541443 0.22675492 -0.8919006 -0.88734597
122 0.064739205 0.46337423 -0.696451 -0.602005 0.16519652 -0.34616476 0.15853196 -0.07716581 0.33865407 0.6457463 -0.5166966 -0.6054038 -0.0013854427 0.023206595 -0.19902962 -1.3788711
92 -1.4293737 -0.12162276 -0.05763188 -0.41335493 0.25692904 0.79126567 0.37768367 0.10488452 1.0574728 0.020366937 -0.079610325 0.26958 0.73666734 -0.24550492 0.079867095 -0.92898303
115 -0.37299478 0.06323451 -0.37932265 -1.1526408 0.24395472 -1.3826814 0.68357563 0.13900365 0.3358625 0.7348962 -0.3013147 -0.045555357 0.3489084 0.3490923 0.053236287 -1.1566035
66 0.47782773 -0.5235117 -0.6111434 0.32812577 -0.09427145 -0.38228208 0.44440088 0.5046003 -0.32762548 0.7053432 -0.111232735 0.41965863 0.74981225 1.0376339 -0.73169386 -0.22589485
571 -0.0061061815 0.23081177 0.1152093 -0.88344806 -0.23570429 0.4140823 -0.84118253 1.3529174 0.09580157 0.4629338 0.4995379 0.5825402 -0.40808955 0.050921127 -0.3717414 -1.0405439
133 -0.3839088 -0.012967401 -0.21560909 0.18833157 0.04097066 -0.06659431 -0.33946 -0.054968882 0.54891896 0.5656001 -0.2616279 -0.26447925 0.9497095 0.3341527 -0.20748462 0.11689509
694 0.1606607 -0.3741536 -0.8026045 -1.1896731 -0.22663233 -0.9358763 0.6874708 -0.45026115 0.51244754 1.2577444 0.14179265 -0.4072564 -0.16154498 0.35674262 -0.010701049 -0.8148921
222 -0.50563526 0.20515195 0.98697126 0.07996119 0.3881896 -0.2579658 0.34130415 0.32684958 1.100396 1.0638877 1.100395 0.73589313 0.37484813 -0.14814813 -0.123284556 -0.7866747
503 0.59252363 -0.39895156 0.253567 0.25455165 0.23838086 -0.26892605 0.3346739 0.0045013623 0.89771324 0.85652536 -0.4676337 0.62531894 0.15905045 -0.072437406 -0.008961816 -0.74013394
848 -0.8809191 -0.09736769 -0.9489501 0.34287706 -0.9431981 0.19444117 -0.95337003 -0.39506552 0.8861119 0.54101455 -0.42971987 -0.523958 0.53993124 0.43768454 -1.3967938 -0.41100994
372 0.29415634 -0.61214525 -0.028222572 -0.6676503 -0.4310968 0.7517978 -0.018442048 -0.28619698 -0.09635082 0.9273921 -0.049163375 0.22907126 0.024415517 0.48541358 -0.15934537 0.14313132
418 -0.32037088 -0.17329869 -0.42628533 -0.061643217 -0.9401683 0.47051057 -0.5857028 0.25960687 -0.23185909 0.22147103 -1.0181348 -0.5330339 0.96952486 1.3449061 -0.28644386 -0.032924317
457 -0.6957391 -0.2595993 -0.2233555 -0.38221365 -0.8168177 0.39325762 -0.40835539 -0.7128612 0.54888636 -0.04635434 0.34376147 0.16226836 0.16247255 1.1353292 0.5731034 -0.4686446
371 0.6173809 -0.63326913 0.101836875 0.083056696 0.3422521 -0.16826014 -0.009165001 0.25002584 0.53505206 0.7065891 -0.79120827 1.1338872 0.02254434 0.43099982 -0.20140773 -0.6201713
188 1.2499493 0.1381057 0.44507733 -0.5989784 -0.77828515 -0.17768468 -0.5105634 -0.20686063 -0.425739 0.8833486 0.054827202 0.06152528 1.0968844 0.6950661 0.012576244 -0.12690264
849 0.3888724 -0.45733333 -1.1092867 -0.08336252 -0.79958963 -0.34966516 -1.0113876 -0.036943913 0.5009238 0.5472229 -0.7507309 -0.5803119 1.1476797 0.04112278 -1.2052723 -0.6156487
230 0.84563243 -0.12148531 -0.57763994 -0.419453 0.70753276 0.18562908 -0.19899349 0.16240592 0.92652386 -0.3953442 0.7594415 0.14067663 0.6757596 0.6431441 -0.566568 -0.0072703385
197 -0.7281808 0.79847276 1.0548121 -0.30832192 -0.12353376 -0.25800267 -0.2995444 0.13953121 1.1094263 1.0006961 0.495937 -0.5945033 0.117748864 0.23054954 -0.119334936 -0.17504199
276 0.40349704 -0.08124025 0.035069276 -0.59353507 -0.43317556 0.78638774 -0.25010872 0.0352894 0.25814483 0.042340137 0.62459016 0.39753938 -0.39940926 0.31211576 -0.61984396 -0.8340832
306 0.59875566 0.2346404 -0.42316613 -0.28017518 0.6825637 -0.029433234 -0.23449455 0.15889722 0.87046397 -0.34742963 0.7089251 -0.9489755 0.20392773 0.97572786 -0.1354349 -0.8068605
153 -0.4936167 -0.541363 0.5557244 -0.68990844 -0.042522106 0.7487986 0.24029751 1.1657785 0.5884054 -0.20782973 0.18061721 0.75216776 -0.6052343 1.0306408 -0.28450212 -0.6275308
251 -0.36646965 0.7406734 -0.14527044 0.2356338 0.02683171 0.79478854 0.3421486 -0.27397877 0.89944845 0.53275573 -0.55913043 -0.24274576 0.43339294 0.30662084 -0.020306874 -0.38687596
211 -0.3625523 0.7222971 0.4994109 -0.14236626 -0.2378345 -0.33859992 -0.10653777 0.00012765301 1.1691257 1.0021362 0.9507683 0.16353135 0.6300084 -0.18500583 0.11879644 -0.23890159
995 -0.34426683 -0.18014984 -1.0867693 0.111749284 -1.2384717 -0.4012805 -0.8890933 -0.20474134 0.26191926 0.5141369 -0.54892796 -0.6362308 0.92776555 0.861352 -1.0939447 -0.4405478
430 -0.060351644 0.08532247 -0.9406958 0.24454999 -0.65076935 -0.25905967 0.6661008 0.78622425 -0.06865348 0.37675238 0.34643188 0.54260355 1.2359446 0.93188757 -0.79726875 0.011315386
101 -0.48781782 -0.5821594 -0.0053618294 0.015535868 -0.113163084 0.7704732 -0.8876789 -0.115966976 0.43184316 0.88361275 0.3492685 -0.6832349 0.4714723 -0.11392706 0.21932225 -0.44872907
836 0.087648325 -0.44359797 -0.2817268 -0.7182087 -0.81200254 0.34630924 0.5907214 -0.4297072 -0.21550165 1.4807462 1.242163 -0.084522456 -0.15122744 0.36853895 0.08083221 -0.50206286
71 0.12076725 -0.6322528 -0.6793517 0.43778932 -0.3245706 -0.012343355 -0.063965805 0.7403261 0.34231505 0.17559887 0.058771662 0.31694463 0.7732831 0.97726846 -0.7145817 0.24370082
555 0.674722 1.1024145 0.043819975 0.18952349 0.7807942 -0.2250688 -0.3541188 0.4532172 0.24901018 0.7716373 1.0257803 -0.013012417 -0.0004248927 0.55206245 -0.63643175 -0.7838813
158 -0.5220923 0.71211773 0.53454626 -0.6330376 -0.6785554 1.0825717 -0.37751147 0.72515845 -0.2388836 0.38007545 -0.47844496 0.48049283 0.5621186 1.2772028 -0.25706735 0.5602145
562 0.9420434 -0.18603721 0.6523333 -0.13513254 -0.92213315 -0.09419085 -0.33739603 0.15010406 -0.46584922 0.6913591 0.29829654 0.30154374 1.0356667 0.66918516 -0.06542906 -0.1792116
191 0.14339267 0.31766838 0.36401653 -0.945744 0.11283162 -0.25879753 -0.11687977 0.06043236 -0.011662445 -0.03728077 -0.93835884 0.67119205 0.87716836 0.62819 0.10158582 -0.5966727
780 -0.3516347 1.2328055 0.76024926 -0.51301384 -0.18288335 -0.1009414 0.29074883 0.18613943 1.054831 1.2835703 0.775808 -0.03515332 0.38592958 -0.006664951 -0.011733229 -0.08900973
441 -0.79214656 0.58276075 0.6799834 -0.38804778 -0.68667406 -0.9870225 0.7977746 0.33727118 1.1557138 0.5371115 0.108458824 0.5898393 0.50841916 0.070280544 -0.5138325 -0.17003766
459 0.6996113 0.6667755 0.159143 0.04171087 -0.42631468 -0.024846764 0.07029991 -0.7195086 1.1021715 -0.7035588 0.06542238 0.48609757 0.5191999 1.5936013 -1.2011073 -0.054833826
385 0.7405804 0.40360436 -0.26484996 -0.6028549 -0.9116583 0.6236964 -0.67734516 0.79597104 1.0459857 0.46538305 -0.20006405 0.74979436 -0.48419252 0.15778555 -0.00346365 -0.29425627
91 0.27062815 0.18792458 -0.092924036 -0.1869827 0.1322274 -0.36273465 0.40412444 -0.28283867 0.9067418 -0.40396032 0.37280503 0.35961178 1.1372222 1.4453686 0.0105178235 0.3014303
165 -0.21273765 -0.42294466 0.71892977 -1.2720935 -0.24616067 -0.67262787 -0.028178137 0.5898609 0.9448594 0.7577781 0.0041405894 -0.64174277 -0.27629605 0.7780244 -0.61631 0.6403916
312 0.16208656 0.7425972 -0.4106366 0.5584263 0.6099101 0.22319499 -0.9207861 0.2210015 0.50984776 0.63423115 0.64291704 0.34708512 -0.6614933 1.338912 -0.27088913 -0.97703016
391 0.017418422 0.92470264 0.14292958 -0.32056147 -0.74545693 1.0605409 0.09042333 0.21379808 -0.13402408 0.09823103 -0.4979564 -0.11047096 0.6257433 1.3911415 -0.53655195 0.23986775
884 0.69377667 0.23229915 -0.6807062 -0.7986858 -0.0657857 0.37821388 -0.12986381 0.626511 0.65242267 -0.16337009 0.2891221 0.3547034 -0.035655636 -0.23554929 -0.3756161 -1.3236024
347 -0.15227006 -0.7947042 0.41517526 -0.8501329 -0.697826 0.8144777 0.7419442 1.136681 0.4626086 -0.36557892 0.84828484 0.4520309 -0.39957297 1.1269138 -0.22815269 -0.7487924
523 -0.29819512 -0.0003403713 0.089333415 0.3162815 -0.37812656 -0.22697572 -0.6222875 0.72649556 -0.3989845 0.29503155 -0.40230337 -0.6733003 0.48735827 1.677344 0.2984477 -0.97884357
157 -0.36068156 0.19893163 -0.1607433 -0.13838357 0.47771618 0.584256 0.25241125 -0.06290698 0.7150548 -0.078286625 -0.48754826 0.18539171 0.10854434 0.6318772 -0.02750707 -0.67658985
518 -0.37772098 -0.26866522 0.14603253 -0.31717914 -0.10054228 -0.079363935 0.41949758 -0.1633471 0.45651412 1.3654511 1.5212885 0.4340709 0.35588613 -0.3206741 -0.3500353 -0.42368448
451 0.39006376 -0.7744043 0.12177094 -0.29280147 -1.1628958 0.35374072 0.18377617 -0.27317283 -0.420837 0.6799465 1.0075575 0.09345638 0.8493702 0.676753 -0.35765648 -0.07005432
706 0.3263431 -0.23726824 -0.41061968 -0.43598455 -1.2635034 0.37887526 -0.5790599 0.06707438 0.32444638 0.44439644 -1.3101261 -0.6565435 1.1720227 0.5113074 -1.1821214 0.3735123
407 0.06012981 0.41863355 -0.44992417 -0.32422426 -0.31389466 1.0204288 -0.09363245 0.39289892 0.65675795 0.10041246 0.20195231 1.1787777 -0.3400147 0.08158669 -1.0816134 -0.79085
149 0.2973126 -0.7464901 0.47193515 0.1880268 0.38524672 -0.3138661 -0.48273268 0.25530845 0.53847593 0.39462754 -0.39023438 1.0192785 -0.015141689 0.32626712 -0.15029171 -1.3357235
113 -0.39940214 0.06457303 0.6869046 -1.0101941 -0.25356853 -0.6645732 -0.3745657 0.08340804 0.53086394 0.7592504 0.06290592 -0.8440762 0.11585736 0.26749474 -0.51632065 -0.05320509
330 0.05779553 0.062457185 0.15666388 -0.81195694 -0.08387599 0.5345742 0.3358391 0.41014308 0.35157734 -0.35714805 0.100716576 -1.1428144 0.5170474 0.9308912 -0.3706456 -0.10552726
293 -0.10713924 0.2611329 0.37939712 -0.086671166 0.30968118 0.4365028 0.61333007 0.46537265 1.0066661 0.5369577 -0.029077478 -0.2786346 0.44569847 -0.109671324 -0.14888513 -0.28922778
291 -0.586317 -0.007758997 0.46533826 -0.0135273775 0.14105871 0.46759227 0.05310766 0.49785343 0.82073724 1.1074277 0.16896601 0.25397986 0.32032457 -0.51323825 -0.43074661 -0.21100721
257 0.44456005 -0.05110875 0.63969886 0.1921608 0.07179209 0.46858394 0.56379783 -0.33111998 -0.44803473 0.23580673 -0.16083267 0.3416617 1.1492617 0.8328888 -0.55591834 -0.74328935
387 0.4804617 -0.0056320583 -0.0128122615 -0.67458403 -0.93633753 0.6383649 -0.6226744 0.26218745 1.3014714 0.16969758 -0.3992461 0.61413556 -0.6679724 0.31042075 0.18761623 -0.40278003
231 0.031702477 -0.90552264 -0.27555898 -0.51728576 -0.23537545 -0.021341043 0.19991262 -0.2529889 0.77934825 -0.23813409 0.26359168 -0.2806927 0.70975935 0.63674605 -0.051827602 -0.01225358
263 0.30735347 -0.32234538 0.4595615 0.031826954 0.39023253 -0.21918097 0.53705657 0.22469127 1.1350188 1.1021056 -0.15474302 -0.16261709 0.38308856 -0.25566882 -0.2845269 -0.1597933
508 0.031247843 -0.67424625 -0.48674756 0.5356249 -1.0574509 0.33068335 -0.4942385 1.265476 0.14187263 0.57384825 0.22293083 0.30750427 0.78774595 1.0941974 -0.56876844 0.5590879
513 -1.0158126 -0.026307182 -1.2138286 0.31659523 -0.5765723 0.17121021 -0.7493592 -0.010357974 0.62007654 0.56636846 -0.071124494 -0.43587038 0.38670427 0.53223944 -1.2058659 -0.39694956
75 -0.6524473 -0.6946437 0.7427734 0.59398246 -0.08029831 -0.10705391 -0.5952713 -0.20149538 0.57013834 1.0016794 -0.12933674 0.7703131 -0.36643618 0.8611731 0.38086337 -1.0809293
475 -0.015018627 -0.15178667 -1.0143656 0.40539557 -0.42000237 -0.3287556 -0.5806396 -0.009509573 0.21125118 0.66273355 -0.26859817 -0.3657148 1.2335075 0.2511032 -1.1499271 -0.508632
217 0.14877938 0.5783638 -0.09555574 -0.0728273 0.40696207 0.30985487 0.061305065 0.3521609 0.70264614 0.8188244 0.4173596 -0.11450718 0.64055514 -0.32001427 -0.017535394 -0.41811728
132 -0.44543865 -0.20015574 -0.48990396 0.044843607 -0.36294037 0.9151415 -0.24574594 0.6902413 0.1078389 0.81535846 -0.045868874 -0.5195197 0.89626527 0.10438662 0.8183472 -0.5553319
338 -0.13807654 0.103841126 0.025387296 -0.19819391 -0.39136022 1.0786153 -0.18103561 -0.32116944 0.17044427 -0.25071216 -0.43382308 0.0057070674 0.7671454 0.6373279 0.016722294 -0.56158924
729 0.049993254 -0.13643685 0.075742215 -0.75002414 -0.050789043 1.0116775 -0.35928977 0.5675894 0.23516066 0.39626533 0.6879804 0.0899515 -0.31384915 -0.2907665 -0.5860087 -1.1645467
383 0.7498465 0.22766575 -0.49846944 -0.5927368 -0.6343789 0.719943 -0.29703653 0.36806583 1.09777 0.2646505 -0.352358 0.54195726 -0.64639294 0.2585975 -0.046338104 -0.5883524
1067 0.25637963 1.0219496 -0.41512907 0.42735848 -0.4801289 -0.5053268 -0.81700814 -0.31975535 0.632033 0.6891065 0.96904206 0.5746158 0.5461778 1.1073433 0.7703803 -1.1892818
1005 0.05760416 0.98280126 -0.49390012 0.6865101 -0.23650298 -0.32043427 -0.8673726 -0.20257671 0.338804 1.1915284 0.9650004 0.7052089 0.42340308 1.5144658 0.8352764 -1.127759
769 1.2295928 0.21057357 0.3984755 -0.35481855 -0.7840084 -0.015624929 -0.21229625 -0.48403403 -0.34082147 0.75191426 0.25020766 0.082730785 1.2488269 1.131468 0.0879864 -0.0089625055
691 0.62971765 0.237207 0.08810129 -0.7809004 -0.70067304 -0.08715625 -0.053946663 -0.16526073 0.41185948 0.82795835 -0.77333295 -0.7665195 0.69507426 0.18178561 -0.61987835 0.43613046
78 -0.82809377 0.21518046 1.0386719 -0.73641574 -0.2878219 -0.54615915 -0.733275 0.44370008 0.59136665 0.6900174 -0.2635385 -0.5536448 -0.1992828 0.46463904 -0.3432552 -0.24659364
1069 0.22999682 0.8551448 -0.34013066 0.42889673 -0.5448889 -0.36094418 -1.0013347 -0.32218045 0.6040682 0.87544924 1.0284178 0.83540964 0.5614058 1.2422662 1.0229329 -1.0939157
786 -0.2420524 1.2658571 0.8808619 -0.4174267 -0.14721587 0.24511786 0.7315654 0.5603805 0.86411905 1.1446848 0.8686355 0.20548363 0.45597818 -0.042587772 0.090519436 -0.41667414
79 -0.6246236 0.14827716 0.34180498 0.20718618 0.21317255 0.40103254 -0.71309346 -0.15036494 1.169856 0.9149849 -0.38111085 -0.03405341 0.7046356 0.07419711 -0.31775817 0.5125289
487 -0.41303337 -0.37378648 -0.7943513 0.08991467 -0.78189933 -0.20559826 -0.8069223 0.10719485 0.5220185 0.14204143 -0.19197112 -0.65454626 0.7301127 0.83680713 -1.4949869 -0.058598783
121 -0.51714253 -0.49092653 0.7044371 -1.4199679 -0.22040276 -0.7129341 -0.064197116 0.8758054 0.77055186 0.9619407 -0.18236852 -0.6967538 0.09536582 0.3372855 -0.43924096 0.39136553
661 -0.16041632 1.2064263 -0.03644187 -0.8284046 -0.46999818 1.1710782 -0.40314308 0.0054098875 -0.18914624 0.11767251 -0.12336064 0.40511325 0.81043404 1.3754536 -0.369442 0.4065225
353 0.5404915 -0.47935635 0.27584913 0.013760345 -0.5380707 0.37140703 0.48607218 -0.30364454 -0.13218702 0.57154953 0.20932443 0.2330539 0.8711635 0.8814782 0.082768835 -0.013014363
228 -0.41187546 -0.45479122 -0.14924157 0.053239234 0.28548703 0.7488045 -0.20955484 -0.607854 0.23457788 0.39585334 0.10672033 -0.5006874 0.001121508 1.1617898 -0.49564755 -0.17891024
337 -0.10041232 0.40634364 -0.47961867 -0.40748024 -0.29789725 0.5839797 0.44840905 -0.24241477 0.62452394 0.7716762 -0.4105782 0.27402952 -0.7891262 0.4314113 0.015476761 -0.8438543
336 -0.8045731 0.3165779 0.08277828 0.17043813 0.13097988 0.69366354 0.026568634 0.06755865 0.9184426 0.72955334 -0.51246893 0.5972533 0.3460074 -0.12495462 -0.6501793 0.0027430342
677 0.23782459 -0.037522465 0.72586554 -0.13295615 -0.79085505 0.32261702 -0.072256975 0.030767562 0.26175582 0.10501061 -0.17521101 -0.47512203 1.1607784 0.23209722 0.3406377 -0.47136545
788 -0.18495344 0.24650367 -0.2659146 -1.0121776 -0.20989276 0.8556874 -0.5768345 1.2999985 -0.008361063 0.6063307 0.48625985 0.44144097 -0.35468805 -0.1442753 -0.42226765 -1.2666218
28 -0.6549768 -0.43957183 -0.1779124 -1.070126 0.79499245 -0.103771105 -0.2863783 0.11260755 0.03684539 0.42655742 0.26254773 -0.04868089 0.5465744 0.595046 -0.55410653 0.11341799
386 0.6498383 0.080875024 -0.2796418 -0.6607364 -0.7238051 0.80564624 -0.4994499 0.5389874 1.0739174 0.2675757 -0.22288136 0.44505543 -0.6708261 0.2169284 -0.24221992 -0.37350482
246 0.19145921 -0.014038456 -0.49911588 0.0657944 0.23382723 0.46931025 0.68185776 -0.08923552 0.57731813 -0.10001379 -0.6412342 -0.038543444 0.51454645 0.9409486 -0.083749264 -0.4539256
432 -0.2573963 0.57553834 -0.6795455 0.6557237 -0.03954323 -0.39045158 -0.34281296 0.2325437 -0.21933304 0.71048355 0.44954386 0.42796683 0.50522274 1.7353252 0.5160017 -1.0628606
148 0.11490591 -0.6009543 0.7091076 0.28702345 0.15397015 0.24374413 -0.50058043 -0.0039002148 0.65984905 0.44627893 -0.1742692 0.83014345 -0.054668494 0.5992438 0.075166285 -0.57364666
88 -1.0882797 0.0066527454 0.2778618 -0.38866198 0.2545446 0.20882362 0.58656335 -0.11112458 0.71614957 0.69964343 1.1188002 0.5202196 0.73258895 -0.29998496 0.060061943 -0.88423544
824 -0.4437758 -0.71985906 -0.62280184 0.38648695 -0.46296427 -0.4514704 -1.0377626 -0.60465807 0.4044762 0.58482176 -0.3238693 -0.1807381 1.3530244 0.22744896 -1.0827007 -0.7906956
870 -0.46199992 -0.8000289 -0.4195799 0.35506636 -1.2124714 -0.08646879 -0.49904242 -0.27567253 0.3828639 0.3901007 -0.6045084 0.19423974 0.9368755 0.10186421 -1.304096 -0.6598069
192 0.32645908 0.17786035 -0.29425043 0.07896287 0.6987269 -0.8027144 0.7637881 0.09005626 1.1719613 0.9273922 0.26707107 0.51911634 0.3515182 -0.14542261 -0.66049844 -0.47148764
400 -0.48712528 0.27640775 0.7432666 -0.015441066 0.23982564 0.40531656 -0.22971329 -0.018640319 1.2319592 0.7745467 -0.4948498 -0.14439002 0.21917428 -0.23898652 -0.51599884 -0.18345179
558 -0.59027576 -0.17982122 0.14713936 0.97463447 -0.59719163 0.2564493 -0.24709536 0.05256585 0.4419017 0.94786197 0.16847326 -0.2971708 -0.63582736 1.0806292 0.099830255 -1.4142104
431 0.28687832 -0.045537785 -0.6956494 -0.28229746 -0.11802315 0.72606325 -0.6117754 0.45290905 0.43553004 0.17755117 0.44812664 0.7047146 -0.4074787 0.38549083 -0.802499 -0.65786076
695 -0.22160585 0.33365288 1.0554154 0.018511184 -0.3655694 0.16595328 0.50321335 0.70889765 1.1736777 0.80000985 0.7496851 0.27503258 0.61550415 -0.37830257 0.1235082 -0.57767475
162 -0.8552041 0.6227303 1.0358902 -0.6325094 -0.34111232 -0.772457 -0.046056475 0.15509069 1.0584317 0.75988084 0.29388008 -0.3914631 0.04128181 0.28002223 -0.53679055 -0.16743289
438 0.04635995 -0.10597048 0.5118356 -0.2088137 -0.008530697 0.980644 -0.040233437 0.4875299 0.6010974 0.6563577 0.4905801 -0.56179446 0.15010388 -0.34209555 -0.13470346 -0.59883076
278 -0.21737519 -0.6904518 -0.46589142 0.4039915 -0.8945813 -0.065382026 -0.709886 -0.8595596 0.74036974 0.34504575 -0.40527233 -0.09660514 1.1328845 0.1556569 -1.1402382 -0.55823207
477 -0.6482898 -0.09845019 -1.3812804 0.30080163 -0.628099 -0.4391526 -0.59943926 -0.1459683 0.028778918 0.8115842 0.013590468 -0.24202351 1.0386668 0.7398074 -1.3735193 -0.53521836
290 0.3326167 0.06975439 -0.723267 -1.1038096 -0.15920277 -0.84684545 0.8083943 0.035365142 0.44258314 1.2729454 -0.12612227 -0.5309884 -0.3194541 0.53385353 0.19264837 -0.8449582
663 0.7905234 0.17541671 0.102667555 -0.61639154 -0.7576987 0.32836673 -0.2681597 -0.37144455 -0.20445661 0.6819234 -0.7699276 -0.46036673 0.9488268 0.4830852 -1.0454745 0.17415582
480 0.16056637 -0.7633878 -1.2672004 -0.26541105 -1.1154522 -1.1491225 -0.3629212 -0.03596387 0.4742367 0.7281943 -0.29844946 -0.26125228 0.27314806 0.57300395 -0.42516774 -0.68230164
275 0.12191447 -0.810328 0.13013157 -0.44271305 -0.267397 0.50393313 0.043757576 -0.37110922 -0.17859963 0.18483926 0.78899395 -0.05786209 0.9267407 0.7750641 -0.26512873 -0.04922552
445 0.31734934 -0.56442785 0.57052004 -0.21328081 -1.2560613 0.717338 0.410621 -0.56255656 0.18401249 -0.0977984 0.1255249 -0.34282023 0.99781096 0.62856954 -0.28308147 -0.30602708
412 -0.21977703 -0.20306806 0.07806426 -0.84568506 -0.40833628 0.75694203 -0.019424649 1.1310023 0.63553655 -0.42782357 0.25880304 0.59996015 -0.6132218 0.6823686 -0.55196214 -0.90296984
208 -0.73188823 0.26397038 0.84887004 0.13629654 -0.14399852 0.07582821 0.18539737 0.37420958 0.7739691 1.2213333 0.7202626 0.38461497 0.59076285 -0.1636317 0.4160663 -0.6174966
363 -0.15627718 0.8509133 0.49991465 -0.41593474 -0.15655099 0.1106009 0.90683997 0.027298812 1.0987189 1.0098093 0.5262419 0.406284 0.532687 -0.017785612 -0.060832344 0.091459446
369 0.50274605 -0.0886646 0.47677347 -0.070344724 -0.004990175 0.13039337 0.7126859 -0.45436367 -0.28795695 0.3857603 -0.17078236 0.6618147 1.0015113 1.1295977 -0.63865024 -0.10501342
607 -0.029818425 -0.6345273 -0.39185187 -0.0016371408 -1.3523054 -0.33347237 0.03280501 0.8207932 0.10873537 0.16135567 0.5317349 0.17123732 0.9450008 0.6695556 -0.8718396 0.06629725
221 -0.058956664 1.326667 0.44377255 -0.2574591 0.28445476 0.09973763 0.4629785 0.6173235 0.7653729 1.2624283 1.0650448 0.012485871 0.42259875 0.06635477 -0.078493424 -0.2812229
908 0.041099362 0.37481222 -0.53889805 0.73033404 0.22188506 0.6505174 -0.81790465 0.5127935 0.85793424 0.6866889 0.40639532 1.45526 -0.095689334 0.47006536 -0.946214 -0.20512487
599 -0.467792 0.65132564 0.45514587 -0.48834607 0.07566527 0.20773566 0.62430835 -0.1275356 0.8647083 1.4028735 1.2721503 0.20856288 0.5270824 -0.2289105 0.020981243 -0.38817504
346 -0.22966202 -0.6774995 0.27669784 -0.44201556 -0.5820751 0.15631995 0.5261074 -0.09174757 0.10068707 -0.10249702 -0.828749 -0.6518294 0.5770878 1.1004725 -0.15155198 -0.40801108
662 0.48308104 0.07416318 0.36084178 -0.8130788 -0.14506204 0.25694582 -0.2514494 -0.30176488 -0.54268396 0.14968506 0.45094523 0.022042595 0.68857443 0.8884772 -0.5596727 -0.3134532
888 0.011499985 0.20174909 -0.23305495 -1.0229013 -0.19390379 0.76120824 -0.7267182 1.3119032 -0.038884986 0.48247245 0.6396939 0.47772047 -0.46189946 0.113366656 -0.46618322 -1.3369381
86 -0.17632954 -0.44096574 -0.027237637 -1.167087 0.1495662 0.11271313 -0.5541978 -0.021217352 0.18618415 -0.5162054 0.6447777 0.12482299 1.2244163 0.44356346 0.014221813 -0.4184237
250 0.25109005 0.44678375 -0.704353 -0.31652513 0.2443179 0.21242303 0.7270885 -0.26401764 0.5240192 -0.10081627 -0.20179617 -0.2903006 0.4199159 0.641166 -0.03874359 -0.9368494
976 1.1233652 0.2916658 0.708023 -0.5794577 -1.1829076 0.4250689 -0.49127424 0.2131536 0.69423145 0.4521738 0.48522687 0.5466241 -0.5557199 -0.002679578 -1.2570634 -0.5267784
425 -0.03266891 0.6557119 0.006538535 -0.10624272 -0.018576805 0.26710618 0.5945347 -0.3136229 -0.30286875 0.5380464 -0.054509796 0.2942222 1.0394924 1.003651 -0.95802593 0.19662821
885 0.22731394 0.33459106 -0.30798715 -1.0409346 -0.4248797 0.6927906 -0.81783026 1.3536483 0.16209781 0.5153671 0.61552155 0.46849003 -0.504873 0.058309816 -0.3104587 -1.2055938
377 -0.08568097 -0.4151865 0.28909034 -0.9325095 -1.0436047 0.324451 0.7445821 -0.10022158 0.36775276 -0.40835974 -0.6610564 -0.23223084 0.904497 0.37534553 -0.6224538 -0.26555794
297 -0.7431701 0.3167161 0.7970084 -1.0120426 -0.6938564 -1.0967146 0.48562604 0.36346078 1.0418658 0.24353978 -0.063422315 -0.49833927 0.2165965 0.5762903 -0.66104084 0.049975384
125 0.08603819 -0.04557575 -0.50500476 -0.97240573 0.17493872 -0.67845255 0.30254376 -0.24335021 0.6596566 0.33522865 0.1139188 -0.62217355 0.0016012922 0.19890833 -0.10541094 -1.0777565
395 -0.28720608 0.6317718 0.19718723 -0.8128884 -0.49771237 1.0627788 -0.14053424 0.009976648 -0.3122725 0.6875119 -0.59108555 0.7799424 0.21219455 1.5325154 -0.24830836 0.5321133
300 0.49058056 -0.56915206 -0.05031686 0.13654907 0.3767141 -0.015476281 -0.34332484 0.026372805 0.4145932 0.7670808 -0.5748769 0.5534241 -0.10811794 0.2853916 -0.027877761 -0.9814999
886 0.044336975 0.20711997 -0.2443456 -0.9916833 -0.18972786 0.7354454 -0.7385801 1.3069725 0.002492747 0.4540371 0.61551195 0.50214535 -0.4565923 0.08023568 -0.50499445 -1.3380437
649 0.13004826 0.5354437 1.087312 0.004490597 -0.5152901 0.63496315 0.06859841 0.40146405 0.15345426 0.77897495 0.00834604 0.67046523 0.32136828 0.12452434 0.10729949 -0.3821748
245 0.24093147 0.21282916 -0.50732315 -0.0728034 0.5075118 0.7048873 0.5339352 -0.4196595 0.59111136 0.28843078 -0.4104022 0.22750701 0.14261737 0.80017966 -0.07654306 -0.45671797
896 0.72789544 0.71646756 -0.79039824 -0.61601704 -0.70302594 0.034011774 -0.5753076 0.5573209 1.1479222 0.3205726 -0.2673512 1.393538 -0.09417426 0.41048717 0.30683473 -0.2728452
657 0.4953131 0.9848414 -0.05611028 -0.6384915 -0.3489146 0.9288764 0.012305056 0.15133968 -0.47196046 0.47421184 -0.26100266 -0.1323843 0.2305482 1.7795265 -0.81584466 0.35941434
491 -0.3096733 -0.57776254 -0.38914037 -0.1259331 -1.0990053 -0.8846821 0.61475897 0.7024292 0.3794875 0.20576425 0.53711486 0.2300376 1.1674477 0.34565243 -1.252631 -0.06443243
895 1.2150544 0.27465495 0.42450798 -0.2120869 -0.86802506 0.4354086 -0.31295452 0.5396559 1.1530107 0.4678614 0.3830402 0.2507356 -0.5625315 -0.15274252 -0.97942835 -0.6055061
784 0.8060311 0.8513128 -0.094363995 -0.5587011 -1.0019877 0.4020406 -0.63108754 0.99058384 1.0212706 0.7205091 0.23713818 0.68719053 -0.4576092 0.029480899 0.08913678 -0.36909533
833 0.75675327 0.77193284 -0.6010635 -0.050753046 0.65674204 0.44141978 -0.28683805 0.5824276 0.6110701 0.4845123 0.8784015 0.7892575 -0.102196716 0.48691583 -0.85322315 -0.40163076
260 -0.13549238 0.12992066 -0.24635902 0.14775671 -0.1955622 1.0568126 -0.5006673 0.19620039 -0.008161423 0.050352424 -0.51973957 -0.2850788 1.0045379 1.3480958 -0.29979733 0.23358375
61 -0.04012035 -0.46616286 -0.85421664 0.025544316 -0.76726407 0.44621912 0.3458428 1.3593298 -0.24495892 1.0149461 0.19273569 -0.2115124 1.2416214 0.18948963 0.34687388 -0.20469086
743 -0.5140049 -0.5120855 0.34071425 -0.7433621 -0.5705945 0.80767614 0.32221457 1.1206176 0.69872427 -0.35468936 0.33328685 0.41642594 -0.7709844 0.9814665 -0.45350048 -0.84845334
808 -1.1046898 -0.2792173 -0.9344147 0.2830001 -0.70882463 0.34854743 -0.8535481 -0.66445327 0.7833343 0.59424865 -0.039699905 -0.63264513 0.12739097 0.801598 -1.2730571 -0.3660426
472 -0.6289864 0.35712203 0.39090994 0.5662986 -0.025375385 0.2510561 0.21073511 0.17134526 1.3889542 0.7845665 0.11339394 0.030720735 0.45907262 0.013886232 0.34979188 -0.5185831
130 -0.87607515 0.4292494 0.6325902 -0.27223852 -0.41644117 -0.4019834 0.441603 0.0045638657 1.076852 0.9535356 0.30125025 0.01804338 0.07349008 -0.043868814 -0.09211466 -0.49240258
890 0.75856835 -0.049159914 -0.16661362 -0.55662435 -1.0388592 0.5687701 -0.6458733 1.1815476 0.74136335 0.54757386 0.36343712 1.017843 -0.37176856 0.33967865 0.0130609255 -0.017987257
748 -0.31193015 -0.36376345 0.55216664 -0.8552409 -0.4931007 0.8029409 0.55423725 1.4158269 0.7364317 -0.29043728 0.7570871 0.57729375 -0.5315606 0.8596638 -0.0485181 -0.93774676
610 -0.8473108 0.34082884 -0.77911764 -0.13162954 -0.66901225 -0.53347474 -0.4788074 0.09699918 0.17925985 0.13341452 0.6249352 0.65294045 0.90085286 1.8754997 0.80519176 -0.5193793
868 -0.12853774 -0.6872029 -0.5549403 0.7110736 -1.0939263 -0.30318597 -1.0443628 -0.42811665 0.7316313 0.22519475 -0.14994358 0.31335557 1.4204956 0.33606216 -1.0990168 -0.5180746
565 -0.4659832 -0.42624837 -0.2489909 0.18051937 -0.20219262 -0.57279265 -0.8042217 -0.45136768 0.4321586 0.7277491 -0.7489894 -0.45916784 0.80364347 0.46583125 -0.80996174 -0.23714933
364 -0.22942752 0.057911728 0.45448425 0.36821085 -0.15826122 0.09553738 -0.2597776 0.15368581 1.2947438 0.7365209 -0.5024664 0.50384325 -0.017459083 0.123345695 0.33363163 -0.34686443
658 -1.010568 0.7323151 0.75323385 -0.4959372 -0.25275782 0.31157076 0.28183514 -0.6304939 -0.46236295 0.84782934 0.1868925 -0.13373378 0.12809496 1.167333 -1.2922386 -0.53197294
1035 0.075544104 -0.28017706 -0.876738 0.052824676 -1.3391124 -0.23995918 -0.6049706 0.09867928 0.51685774 0.5917254 -1.0376407 -0.35614586 1.3861446 0.01743106 -1.5850642 -0.44199917
323 -0.0042390265 -0.019002613 -0.4581564 -0.8432551 0.4583435 -0.45479932 0.3488407 -0.48547727 1.6309184 0.8943267 0.023678258 0.8072474 0.6034692 -0.48656338 -0.35804227 0.074123144
847 0.31815025 -0.44784144 -0.7977881 -0.12897125 -0.91268635 0.0020614064 -0.8249434 -0.06714808 0.6339348 0.4971836 -1.1416756 -0.5614739 1.3487631 0.09805545 -1.4571131 -0.13222988
699 -1.1794306 0.6307114 0.8395989 -0.6486248 -0.66844034 -1.1343437 0.8481577 -0.18908496 0.8629182 0.83016753 0.050920837 -0.00317342 -0.031426467 0.45565253 -0.73060954 -0.6335554
634 -0.5265484 0.024578698 -0.9815626 -0.6829807 -0.8947459 0.1882777 -0.27558988 -0.3080344 0.5941241 -0.048443943 0.6809524 1.2543797 0.55544305 1.3974645 0.8098918 -0.41526574
184 0.20323749 0.26272053 1.0217028 -0.37365618 0.0065070693 -0.5313124 -0.17152555 -0.1955954 0.8048136 -0.066379376 -0.64962447 0.60935533 0.69751483 0.7061131 -0.11422608 -0.07562491
280 0.09230609 -0.53502816 -0.31301874 -1.113178 0.17316939 -0.4017772 0.067725204 -0.3247756 0.16103843 1.3207935 0.37422025 -0.16331197 -0.27231696 0.7300633 -0.15888156 0.20521708
63 0.24096231 -1.1139585 -0.3476974 0.7297968 -0.72762984 -0.14622368 -0.42407075 1.0866311 0.2604357 0.62637514 0.14509444 0.57742614 0.47045437 1.05393 -0.4933368 0.11303679
163 -0.4312576 -0.99819523 0.51622444 -1.2539402 -0.46418914 -0.47762334 0.028342241 0.1562785 0.4976204 0.94463164 0.12548462 -0.40336323 -0.21837658 -0.08624683 -0.95491636 -0.023433778
887 0.048098024 0.21980129 -0.20331563 -1.0476028 -0.20375413 0.74106795 -0.7211791 1.3131126 0.009536824 0.4488209 0.6375271 0.49848616 -0.45422092 0.106171876 -0.47082636 -1.3078221
476 -0.3330104 -0.9629715 -0.992988 0.55923504 -0.92591995 -0.30837733 -0.48196283 0.72240937 0.39867744 0.74243647 -0.11930303 0.46524605 0.4954764 0.6680611 -0.8782999 -0.06885083
373 0.38986474 -0.26712945 -0.7879637 0.044792045 -0.010084978 -0.08782671 0.48184806 0.6801237 0.07299165 0.07690075 -0.0026150944 0.3599444 0.78648573 0.45542914 -0.69647753 -0.4659379
279 -0.0016756802 -0.7888131 0.025393736 -0.87379974 -0.7510046 0.50118834 -0.21650083 -0.6985251 -0.45726556 0.57788795 0.45538735 0.49916038 0.7896309 0.7507853 0.08708698 -0.11001589
444 0.6911841 -0.3160966 -0.4627513 -0.1388397 0.3012361 -0.33943287 0.3740609 0.30473244 0.65001035 0.07540035 0.6116256 -0.06811133 0.6734646 0.9307961 -0.12152511 0.15240027
907 0.45336902 1.0101911 -0.69194955 0.5524925 -0.22425668 -0.033438828 -1.087189 0.19714902 0.46101332 0.98804986 0.73036593 0.65701234 0.02254589 1.4809602 0.82548684 -0.9946822
5 -0.9783072 -0.29260778 0.6994176 -0.15226611 0.46563208 0.05908481 -0.98523885 0.2622621 0.502077 0.48648077 -0.36743033 -0.08608612 0.30410755 0.48872754 -0.03373424 -0.26837888
408 -0.18510884 0.61446 -0.5403206 0.004676972 0.08127187 1.157935 -0.33451217 0.24941361 0.674029 0.50016963 0.5338762 1.2514733 -0.11463408 -0.056238845 -1.0676194 -0.69947565
569 0.13592397 0.092707 0.392983 -0.7126469 0.38101825 -1.1329312 -1.073275 0.8331745 0.2057197 1.0623769 -0.4031354 -0.4399079 0.118283354 0.8243857 0.0480006 -0.22454113
809 0.7648255 0.85820127 -0.6765894 -0.2270148 0.8319621 0.38817394 -0.1902133 0.51156473 0.7954256 0.27385387 0.918702 0.8165183 0.32693136 0.35231337 -0.6476606 -0.2672383
414 0.33201057 -0.086077675 -0.087573275 -0.012300489 0.22778822 0.6407378 0.15760802 0.6500565 0.5379895 -0.086953886 -0.0022976943 0.21074116 0.14742532 0.13136557 -0.1420746 -0.9789524
840 0.32438725 0.77810174 0.30110702 0.08739368 -0.5911264 0.2524646 0.4715385 -0.34515962 0.5046695 -0.4278131 -0.15394706 0.2621969 0.73632383 1.785191 -0.8489847 0.17366573
912 -0.40704378 -0.1645452 0.21213014 0.96092504 -0.60780936 0.19176672 -0.2684425 -0.1554123 0.34979975 1.3238668 0.67971694 -0.2506532 -0.6457311 1.4091232 0.3084376 -1.3687546
416 0.5450443 -0.43284354 -0.27695563 -0.20123953 0.030292036 -0.14188117 -0.15498272 0.15722473 0.5575862 1.0434712 -1.0076221 0.9905301 -0.30236655 0.5054445 0.2311479 -0.49823335
521 0.3162856 0.16720127 0.18389691 0.6739012 -1.0530554 0.022735743 0.043446053 0.94397354 0.1313885 0.3166552 0.24201238 -0.47892758 0.46625838 1.2004192 0.48861837 -0.67832106
110 0.10987222 0.21655431 0.24803542 -1.0287057 0.45942366 -1.1119819 -0.58465755 0.56424904 0.41580418 1.2040935 -0.076726034 -0.50342155 0.2777343 0.46738246 -0.18225579 0.054388084
505 0.5065565 -0.6998454 0.39431033 0.48458123 0.16741742 -0.1296957 -0.23468152 0.21191113 0.42527214 0.44401878 -0.6338819 0.90280807 0.2224854 0.3420892 -0.2414843 -1.09927
181 -0.46958426 -0.1456646 0.97539294 -0.2624039 -0.2990503 -0.44385925 -0.5247387 0.32648408 0.22128502 1.1680619 0.24687797 -1.1300298 -0.157054 0.661386 -0.34617323 -0.20812257
317 -0.3426844 0.4298329 0.30446225 -0.5947049 -0.028061636 0.46266824 0.36221668 -0.1023746 1.0977993 1.2653896 0.15417163 -0.039612956 0.6499281 -0.46183747 -0.10089039 0.20825042
671 0.27506047 0.015223061 -0.55296683 -1.087143 -0.5478351 -0.66479534 0.30708998 -0.28326428 0.29013455 1.6321222 0.4528481 -0.00041135363 -0.51031286 0.6347496 0.3128892 -0.19121464
675 -0.20291112 -0.3707591 -0.83619595 -0.7630204 -0.51355714 -1.4339944 0.5732927 -0.27677563 0.42203188 1.1468712 -0.16421951 -0.1946235 0.030806819 0.3525343 -0.14377621 -1.1952633
641 -0.70360726 0.61586815 -0.06575491 -0.053455073 -0.1197362 0.6431422 -0.08393114 0.33056775 0.2929065 1.5688537 -0.35604197 0.041507903 0.45880035 -0.67457485 -0.16060841 -0.7626539
509 0.3588541 -0.6839583 -0.21083784 0.8511975 -1.2670974 0.14181556 -0.31629816 1.2300581 0.33687335 0.4736164 0.5903565 -0.051668942 0.2729226 1.4094657 -0.05012893 -0.0199259
872 -0.72866935 -0.3132559 -0.68208414 -1.1211752 -0.99786294 0.56700236 -0.16288064 -0.3817868 -0.2854542 0.2770284 0.4141113 0.880348 0.7037298 1.2605935 0.3544347 -0.123101406
43 0.44525117 -0.50859594 -0.744105 -0.06642063 0.5199928 0.17718902 0.20867199 -0.025540499 0.6497741 -0.02736705 0.32053244 0.1051849 0.86555064 0.7928534 -0.32644343 0.074793965
892 0.6073129 0.09417394 -0.35429817 -0.516161 -0.6027037 0.548999 -0.6141096 0.6592154 0.7580634 0.25820845 -0.067160666 0.5776244 -0.657097 0.21818618 -0.55198044 -0.63401335
325 -0.15937622 0.16948672 0.346998 -0.69163233 -0.062973894 0.46206072 0.49344882 -0.35207534 1.3920232 0.9950014 0.18458839 0.015448983 0.55169135 -0.3481495 -0.21759851 0.3920429
388 0.535006 -0.044725064 0.09183601 -0.67270184 0.0236325 0.9051914 -0.29683495 0.49638888 0.49609286 0.41630128 0.98170584 0.6981267 -0.69594204 0.80116725 -0.19608268 -0.20876297
744 -0.14738886 0.11118859 0.7320422 -0.6993029 -0.33488914 0.911367 0.87030333 1.2001919 0.72892076 -0.2618175 0.5613249 0.6723548 -0.4846963 0.8537231 -0.21720533 -0.8549864
650 -0.038597047 0.7268631 0.21242635 0.29260573 0.24694258 0.2803184 0.33448997 0.26754394 1.3239071 0.6047635 0.49974936 0.01862253 0.48106632 -0.38767037 -0.45634702 -0.6224588
538 0.6109629 -0.586055 0.10774292 -0.23102763 -0.6466841 0.46209532 0.31556502 -0.27129894 -0.58906215 1.0780625 0.5767207 0.21760699 0.43771046 1.0858477 -0.3712083 0.13170858
1098 0.029199747 -0.16705154 -0.83514005 -0.040028326 -1.3552122 -0.027509596 -0.96051514 -0.09657891 0.7939921 0.4547738 -1.1383357 -0.5016722 1.275435 0.19529285 -1.552315 -0.1524368
745 -0.30075455 -0.2279706 0.65016484 -0.7161019 -0.60327786 0.8493944 0.70126045 1.2954668 0.8719122 -0.22888443 0.541675 0.7060135 -0.52004355 0.782552 -0.0151857445 -0.81023085
945 -0.057618383 -0.42430145 0.4380385 -0.7016183 -0.62777644 0.9917083 0.6956907 1.1499407 0.7672198 -0.20248085 0.5165933 0.5021258 -0.72623503 0.877868 -0.4748711 -0.81300735
118 -0.9461414 0.30212244 0.13477859 -0.83644253 -0.44902673 -0.88514787 0.28034067 0.69194305 0.90208006 0.6898753 -0.25988683 1.0520481 1.2291158 -0.43289432 -0.10001606 -0.09838912
953 1.2233672 -0.22640279 0.15966749 -0.5046989 -0.49988237 -0.04914702 -0.36155444 -0.81398416 -0.36200112 0.7736227 0.35147277 0.32932162 0.9625151 1.1270043 0.18131295 -0.2701563
656 1.1032536 0.26231366 0.5201676 -0.47620657 -0.55969524 0.10047404 -0.45918697 -0.66548234 -0.38320678 0.7657576 0.39519277 0.14894995 1.0514783 0.8972863 -0.07295409 -0.16159475
455 1.1057043 0.008536841 0.18152028 -0.260981 -0.393659 0.049333997 -0.11036638 -0.32779038 -0.6491536 0.68384427 0.3337565 0.06832379 1.0111592 0.8340568 -0.46315444 -0.44532052
707 0.6762924 -0.09512165 0.4441324 -0.8425603 -0.41659927 0.29928416 0.24645631 -0.5084995 -0.4523033 0.33469105 -0.096116535 -0.11510447 0.31595612 1.233801 -0.6837156 -0.14247906
456 0.11770766 0.27171975 0.53523755 -0.15385368 0.70328933 0.29380807 -6.307087e-05 -0.5968103 -0.46259582 0.27916464 0.42386654 -0.3351437 0.8768373 0.879373 -1.2428021 -0.74852693
629 -0.3688962 0.7598996 0.3227548 -0.9757289 -0.15962535 -0.5944547 0.035050377 0.16959804 1.340182 0.6552757 0.14163664 1.0528861 1.1841697 -0.48333108 0.32166854 -0.11991987
816 0.07040794 -0.7835028 -0.2725908 0.037684835 -0.4249429 -0.037226897 -0.5939468 0.12798658 0.36470798 0.0577582 -0.5785361 -0.8744734 1.1978478 0.09251902 -1.2123936 -0.6005244
1078 -0.45127475 0.4541586 -0.6156584 0.0650251 -0.71748024 -0.39225677 -0.71636796 -0.3458421 0.622821 0.53546816 1.1677777 0.98828423 0.7464814 1.3858331 1.1269445 -0.9064997
433 -0.1814651 1.1835189 -0.50257796 -0.21277669 0.18273689 0.20419893 0.22101842 -0.24839404 0.72440517 0.46240416 -0.49019104 -0.33656934 -0.38585415 0.47688553 -0.21052882 -1.2030088
958 0.5467787 0.09153025 0.033852275 -0.9244904 -0.34831548 -0.056735307 0.58297104 0.8862231 0.3084133 0.4806545 1.0249742 0.5985512 -0.99445456 1.1745218 -0.21726328 -0.5789312
957 0.19829778 -0.50081474 -1.376931 -0.33899647 -0.9537785 -0.75555676 -0.88756704 -0.37631604 0.34321982 0.948583 -0.4223741 -0.4755359 0.42388806 0.5009293 -0.4543087 -0.64221126
981 1.4099212 0.10968952 0.41186133 -0.25841513 -1.0771962 0.68453306 -0.25307602 0.7390983 0.9375893 0.33243796 0.24870181 0.05199946 -0.574575 0.03792837 -1.4399328 -0.6986934
315 -0.18200481 -0.11561168 0.2722184 0.25772905 -0.83086663 0.43881643 -0.22618286 -0.022379931 0.83130044 -0.22385846 0.7037282 -0.1540419 -0.092921965 1.3560619 0.65958565 -0.6460537
29 0.012400159 -0.19117509 0.15712538 0.27670723 0.52846664 0.12579036 -0.6895489 0.0082797855 0.3411042 0.32417327 0.57592756 -0.117718846 -0.36368108 1.6099038 0.23770332 -0.74100363
187 0.19873601 0.21893333 0.8729019 -0.7981064 -0.30044612 -0.24819647 -0.7418724 0.8923643 0.011986309 -0.18974832 -0.5706432 0.09853727 0.20113708 0.91714317 -0.1133643 -0.55032474
894 1.5604496 0.35553417 0.38616338 -0.29527235 -0.9874851 0.79470915 -0.32643786 0.33332363 0.730742 0.7518425 0.07311963 0.14071925 -0.48690975 -0.025833951 -1.4522403 -0.45167798
365 0.26717165 -0.01762237 0.62328327 0.033870324 -0.07133475 0.22666195 0.70093346 -0.763803 -0.15807039 0.6884113 -0.54754084 0.48963723 0.38946787 1.2591027 -0.46769097 -0.30605417
479 0.21398738 -0.60849917 -1.2785214 -0.53854746 -0.6548178 -0.6690957 -0.9622692 -0.009201374 0.18727446 0.5904965 -0.41127157 -0.28435993 0.58973366 0.32355487 -1.0361164 -0.5683595
586 0.05020913 -0.45109373 0.10613605 -0.27975053 -0.89845055 1.1154422 0.22422343 -0.096521415 0.4720634 -0.2878938 -0.18036729 -0.5337771 0.5596208 0.39147645 0.03007487 -0.5592993
324 -0.004726045 -0.17075002 -0.2371386 -0.8445664 0.045646016 0.76120865 0.53790075 -0.49482268 0.87106884 1.0431682 0.04906837 0.03236748 0.41785872 -0.09887903 0.123100564 0.29025444
499 0.3615959 0.85034424 -0.7354987 0.41087285 -1.038797 -0.48643845 0.69827425 0.35015482 0.5123107 -0.22687359 -0.0005300094 0.07083164 1.1524044 1.4263757 -1.0068243 -0.1635633
692 0.29667884 0.08944404 -0.11336948 -0.19777888 0.21835543 -0.1498738 0.15266964 0.1338701 0.8356575 0.24856132 0.39451313 0.0025275655 0.34174415 -0.47897756 -0.15100855 -1.2347312
705 -0.15318598 -0.5201432 -0.00083127525 -0.67290425 -0.62373644 0.1497987 -0.30480745 -0.65127164 0.120170176 0.5373185 0.10238961 -0.3633727 0.09803133 -0.02018546 -0.9989108 -0.46115726
891 0.99971455 0.85144997 -0.61138594 -0.15509948 -0.7539769 0.07958934 -0.7682409 0.46931547 0.9159564 0.7969231 0.010219557 0.87046456 -0.28529844 0.44691485 0.48812276 -0.5116452
119 0.09567934 0.05193375 0.4465319 -0.83203065 0.49288687 -1.2302381 -0.63930386 0.9170663 0.35727614 1.1929948 -0.23120174 -0.369682 0.3012741 0.5641018 -0.11846173 -0.013165389
859 0.23169687 -0.552272 2.9714545e-05 -0.88521564 -0.32364157 0.8794328 -0.20378257 -0.37832534 0.045520373 0.76398987 0.9202877 0.4099183 -0.7341886 0.37821802 -0.5432274 -0.6527196
307 0.25858322 -0.2781431 0.23372559 -0.15246998 0.18976767 0.63943976 -0.31807223 0.3267989 0.97791076 0.5100341 0.53219634 -0.73257226 0.99050033 -0.5343104 0.22513936 -0.4403717
166 -0.12774956 -0.44398162 0.5947616 -0.93117416 -0.022076298 -0.60527134 0.12342447 0.7466522 0.99031454 0.98282367 -0.16817576 -0.84029096 0.14994134 0.43942514 -0.54375315 0.6488086
1105 0.06025993 0.83598864 -0.12722507 0.8167885 -0.61587465 -0.40260437 -0.85953605 -0.33765754 0.7460778 1.0728192 1.2108215 0.5667429 0.36742103 1.4555105 0.93691796 -1.2983545
793 -0.2502356 0.689014 0.13400155 0.79472506 -0.17526813 -0.4703775 -0.7266824 -0.1642366 1.1573751 0.7597595 1.048632 0.8084479 0.6783742 0.98256505 1.0107418 -0.8475661
161 -0.28053692 0.24545133 1.1743798 -0.6145485 -0.02861014 -0.9678197 -0.63563645 0.55685866 0.67612785 0.7166794 -0.5677271 0.03510286 -0.0604291 0.5751758 -0.3003997 -0.10290546
380 0.76362324 0.33469215 0.046480726 -0.57825214 -1.0696797 0.6556805 -0.649075 0.43510112 1.1692702 0.46835014 -0.15059273 0.6911463 -0.5427797 0.12233973 -0.16973196 -0.18387616
572 0.092794165 0.43138355 0.41473615 -0.23169713 -0.4349791 -0.27453676 0.20964211 -0.26811594 0.7143161 -0.1336801 -0.47640905 0.814716 0.29758012 1.7268997 -0.3080043 0.42882654
770 1.3306947 0.37200624 0.34079784 -0.8693859 -0.842586 0.13483894 -0.6296672 -0.4576569 -0.26862797 0.8931189 0.34967154 -0.38833964 1.1622366 0.79363334 0.19029748 -0.06247783
983 1.1873418 0.13294584 0.32476062 -0.5555526 -1.1459696 0.8116451 -0.14681669 0.46484646 0.84092045 -0.037918422 0.06374157 -0.0063118995 -0.24234724 -0.012649411 -1.3508308 -0.49368528
350 0.060940117 -0.8895953 0.53576666 0.5455446 -0.26913518 0.56637263 0.04782111 0.14611465 1.0049355 -0.06747201 0.5166553 -0.8247583 0.7830248 1.5754706 0.8562129 -0.30762434
633 0.28938848 -0.8312709 0.21105282 -1.3774621 -0.36024058 0.27347764 -0.4535358 -0.0016517432 0.40513864 -0.00015318139 0.7012162 0.13983376 -0.20758946 0.10245807 -0.71095186 -0.2798302
869 -0.051302474 -0.26371515 -0.4706723 0.57925147 -1.1571382 -0.69934857 -0.75080115 -0.6444742 0.9302507 0.008756633 -0.29216647 -0.0062548197 1.5186275 0.53185505 -1.051346 -0.5521411
746 -0.288742 -0.44918895 0.6482572 -0.8200481 -0.40095687 0.89160216 0.641358 1.3336463 0.8371625 -0.28741762 0.52185285 0.65879995 -0.67962307 1.0303538 -0.2376152 -0.8830139
244 -0.25223148 -0.40649614 -0.24779879 -0.6733054 -0.5072057 0.76855063 -0.07954799 1.0543725 -0.16466087 1.023313 0.10899118 -0.6334247 0.92158204 0.18960804 0.53994685 0.19294083
860 0.007007862 0.75558186 -0.5122249 0.52027994 0.28635433 0.039057314 -0.66858166 0.091095395 -0.017274933 1.329621 0.9956476 0.31342515 -0.36539695 1.5301517 0.3088242 -0.9244578
426 0.01654579 -0.4106705 -0.7844962 0.42844552 -0.27181616 -0.5063234 0.5251337 0.8171082 -0.104533285 0.51398176 0.038628194 0.4478559 0.7564683 1.0271391 -0.6501307 -0.3129642
819 1.2763616 -0.023944745 0.28863588 -0.8376642 -0.615523 -0.12115074 -0.53734374 -0.4335658 -0.33447668 0.69145054 0.5049537 -0.64544874 0.9230948 1.1036668 0.450342 -0.44652504
642 -0.44476655 0.79937714 0.39839637 -0.0095705 -0.1324645 0.39125177 0.19137071 0.52151567 0.6095985 1.3410307 0.12812705 -0.038773444 0.7309861 -0.63384426 -0.04103787 -0.6560859
701 0.29336587 0.5672284 0.06493706 0.11788013 -0.69021565 -0.12261731 0.6092213 -0.31142285 1.0059509 -0.6485371 -0.14465305 -0.041334722 0.62697744 1.4900244 -1.0175399 -0.009927938
1043 0.2623142 -0.17922662 -1.0089635 -0.18871026 -1.5918194 -0.1507015 -0.6440604 0.14933881 0.563907 0.5731105 -0.9821025 -0.5775193 1.3895485 0.2816355 -1.5468827 -0.050232276
853 0.7499575 0.2875328 0.4999055 -0.6594769 -0.4320199 -0.08717255 -0.014363234 -0.72716355 -0.110251606 0.94112754 -0.7778621 0.0938374 0.78023154 0.9652608 -0.9350248 0.5015651
648 -0.52829164 0.38435957 0.99833 -0.11180618 -0.39199635 0.44298467 0.21128184 0.39330408 0.60694295 0.8116626 0.7454379 0.36624405 1.0122058 -0.2918716 0.27943152 -0.43145218
417 -0.826746 -0.13564846 -0.5800375 -0.8245712 -0.8133044 0.645833 -0.18041348 -0.57779014 -0.06514289 0.37233767 0.10902172 0.611519 0.5308298 1.3738304 0.3773334 0.10698351
731 0.10186404 0.4427965 0.19552495 0.007627082 -0.37062007 1.3559841 -0.73879254 -0.14323966 0.89755964 -0.24134603 0.6757798 1.5117341 0.11975065 0.41100234 -1.5130668 -0.44934455
311 0.34924933 0.21522474 -0.22799164 0.1648219 0.47880068 0.13636535 -0.78539026 -0.21518624 0.64788175 0.19591382 0.47026113 -0.6222133 -0.5407667 1.4076943 0.10202802 -1.1250271
902 -0.04760363 -0.0999888 0.16170302 1.0200541 -0.29438594 0.30238912 -0.17200045 -0.29477388 0.38347483 1.2058823 0.7413524 -0.29172722 -0.6756039 1.6818908 0.10317694 -0.9924124
614 0.47707862 0.50554204 0.0629011 0.11002214 -0.38184047 -0.42812005 0.29290208 -0.18640032 1.0956609 -0.5460297 -0.29543456 -0.17368965 1.3353012 1.3357219 -0.15990177 0.11077751
224 -0.13423352 0.08451356 -0.43118927 -0.7368339 0.20792194 -1.4909118 1.0262483 0.015352488 0.6081974 1.0827321 -0.20869862 0.11331989 0.1753594 0.3294104 -0.2655108 -0.9785281
602 -0.18351953 0.49532002 0.36169958 -1.2728305 -0.34230664 -0.4857896 -0.7286059 0.22592425 0.2098274 -0.19661264 -0.78776383 0.9569989 1.1316347 0.29656845 0.16184422 -0.9101882
144 -0.27358317 -0.9024011 0.4617874 -0.32186067 -0.6356284 0.051297642 -0.87485975 -0.081145555 1.3951799 0.29099438 -0.68917584 1.1486377 -0.34328246 0.4985642 0.8062753 -0.88091165
402 0.40956193 0.52701944 -0.59581715 -0.6211189 -0.4187809 0.70730156 0.058759633 0.22720458 -0.02122139 0.61834973 -0.045712285 -0.50423574 -0.85828304 1.4399308 -0.33004814 -0.3500025
265 0.07605907 -0.9736924 -0.6835899 -0.20406336 0.28174585 0.7946775 -0.32113504 -0.029729486 0.8580579 0.739318 0.23790054 -0.38593325 0.42824414 -0.34668154 0.2946132 -0.6587364
471 -1.2550789 0.22677061 -0.8343611 0.45221245 -0.5509781 0.26717967 -0.7962021 -0.275808 1.0691417 0.66679454 -0.28222162 -0.41625896 0.32647404 0.22665396 -0.97101736 -0.420372
89 -0.4152597 0.3027147 -0.021717379 -0.91343147 -0.2147458 -0.3367476 -0.680091 0.32543027 0.0444791 -0.29104626 -0.5478677 0.7386302 1.5293707 0.37261334 0.30963975 -0.8888426
349 -0.22411999 -0.56689185 -0.004470465 0.34207997 0.06520959 0.13712549 0.00886899 0.3958931 -0.4645684 0.2636009 -0.42304808 -0.055173915 0.36598906 1.4984689 0.07078972 -1.0098636
632 -0.37977374 -0.5198358 -0.033162195 -0.5686287 -0.53327215 -0.019728187 0.510214 -0.087288216 0.061496753 -0.7288233 0.5592699 0.10522792 1.286668 0.4311149 -0.96857774 -0.7133618
834 0.8790989 0.99710834 -0.7281695 0.024158569 0.9520878 0.24453406 -0.21742451 0.45155454 0.7338057 0.5163102 0.95414764 0.6187805 0.2887448 0.40498665 -0.902371 -0.46823102
422 -0.41844058 -0.3275988 -1.0023266 -0.03538834 -0.5582504 -0.09328891 -1.0024292 -0.5285813 0.023904819 0.6921965 -0.57391614 -0.364514 1.000884 0.34491247 -0.38891807 -0.9025102
996 -0.2499518 -0.5327092 -1.1108679 -0.21301763 -0.93478006 -0.48187938 -0.83536756 -0.5141059 0.0690782 0.87876904 -0.2724552 -0.49556 0.6609441 0.38442856 -0.8210988 -0.80455667
638 -0.10229513 -0.2554063 0.3461306 -0.10944156 -0.5886369 0.9240004 -0.36516675 0.43331918 0.08675392 0.16570206 -0.26961407 -0.8047104 1.0189222 0.18660972 0.6437319 -0.87715393
659 0.6986053 0.92935836 0.04345577 -0.18103899 -0.1460224 -0.03474396 0.14668275 -0.51165575 0.11215878 0.6134482 -0.17029941 0.78046334 0.72836494 1.2664499 -0.60492235 0.46001998
285 -0.23744185 -0.55611837 -0.33448762 -0.06764878 -0.6348348 -0.3059101 0.02254759 1.4595766 -0.36410573 0.81140476 0.367104 0.5177771 0.6557207 0.70171875 -0.42765033 0.040222947
1001 0.28107184 1.1534 -0.46819627 0.106788 -0.8077085 -0.05778052 0.67100203 0.0056657 0.31037617 -0.5598492 0.5588807 -0.2523243 1.0833422 0.9990855 -0.5873106 -1.0100267
190 0.08486479 -0.08778504 1.1811473 -0.5087588 -0.11833645 -0.6637838 -0.63964397 0.74428076 0.302589 0.4415492 -1.0232047 0.5980724 0.13821006 0.7135276 -0.15821072 -0.35930583
593 -0.0018172615 -0.096321635 1.0623223 -0.578224 -0.961723 0.49394593 0.54236406 1.1417472 1.6364653 0.27060512 0.7658549 0.5703596 0.026382307 -0.15459429 0.58281636 -0.41828033
510 -0.09248883 -0.22219841 -1.1853602 0.21239913 -0.5204124 -0.13055758 0.27180856 1.0472327 -0.20635627 0.49870506 0.34842837 0.5980344 1.2073473 0.7678349 -0.5749053 -0.23448022
8 -0.97932965 -0.7315165 -0.17564592 -0.58524966 0.93377334 0.37431964 -0.5394074 0.15441322 0.081920266 0.74084353 0.22236456 0.014623088 0.75739074 0.64327335 -0.06905876 0.13566677
398 0.14251183 0.10812358 0.3175993 -0.75855446 -0.6932065 0.534437 0.085907586 0.4965661 0.3519196 0.6974087 1.0104092 0.532767 -0.85572577 0.45713818 -0.5467227 -0.29982415
561 -0.37482423 -0.13899226 0.28818598 1.1069474 -0.30035982 -0.022233728 -0.5212562 -0.19647357 0.40685457 1.5661823 0.68761456 0.21915141 -0.70661134 1.5997801 0.33424932 -1.3295218
141 0.19809654 -0.71134406 0.69107366 0.1840488 0.48473734 0.34380114 -0.5320907 -0.0110121295 0.4916575 0.17720321 -0.050766908 1.3205234 -0.19291042 1.0016476 -0.34606907 -0.90959865
1009 0.7074099 0.78102237 0.72085273 0.07591005 0.92730474 0.331851 -0.4398968 0.2729412 -0.74366933 0.8870038 0.6098745 -0.28970817 0.90444666 0.7376974 -0.9453232 -0.87630445
252 0.4381907 0.6765526 -0.64157724 -0.24846387 0.41934344 0.10244288 0.48801988 0.051792264 1.0429617 0.21295017 -0.21452345 -0.97684157 0.25922683 0.5328421 0.16226971 -0.6778255
77 -0.74429965 0.030316506 0.22216651 -0.020744981 0.6291401 0.017674517 -0.37636137 -0.1893307 1.2944007 0.5000658 -0.19931428 0.26028535 0.19536611 0.0421391 -0.123780586 -0.350946
167 -0.011503534 -0.28792733 0.50664425 -1.2158656 -0.004569666 -0.73896897 -0.16402523 0.12762766 0.53550184 1.1284318 -0.01185839 -0.5773405 -0.03714036 0.6756395 -0.117356405 0.3728647
277 0.13733637 -0.52189004 -0.6729037 -1.3199743 0.16785835 -0.6675559 0.3281056 -0.8510291 1.0779334 0.6549551 0.30143714 -0.26912832 0.19007224 0.06828959 -0.46350843 -0.16340551
96 -1.024715 0.0008353475 -0.46781194 -0.6610194 -0.33464104 -0.17803061 -0.36788777 -0.26292735 0.5402079 -0.14377284 0.57774806 0.7690845 0.8402766 1.4527702 0.7762679 -0.2002769
357 1.040491 0.26713997 -0.93725514 -0.45852664 -0.31258172 0.05936691 -0.14010397 0.379875 0.90659404 0.8435954 -0.5691977 0.8982796 -0.45429352 0.52066815 0.45362067 -0.42098802
822 -0.44724327 0.29075813 -0.046380337 -0.037299704 -0.48399436 -0.6988083 -0.5683301 0.37161532 -0.26875907 0.21491425 0.08002392 -0.44351935 0.7952448 1.8795716 0.8120884 -0.9877871
411 0.047575656 -0.01670038 -0.027211092 -0.6730051 -0.5900781 0.7698114 -0.3107701 0.64950836 -0.010225796 0.30643734 0.07949947 1.3225932 -0.19680622 -0.08551612 -1.0533963 -0.9299599
33 -0.5087388 -0.16507572 0.5919062 -0.95155704 0.62846196 -0.7013038 -0.063901685 0.8746923 0.4928516 0.87219685 0.0147663085 -0.26310828 0.58778405 0.53513783 0.011434008 0.2755236
783 -0.29486662 1.1534729 0.99773777 -0.3546835 -0.28987753 0.5067319 0.96208197 0.83211136 0.7047692 0.12015498 0.52931863 0.25098658 0.4199162 0.17962192 -0.112455174 -0.712549
855 -0.35367432 -0.27678025 -0.2619323 0.3205896 -1.2434479 -0.53814983 -0.85149145 -0.8505514 0.9767592 -0.38914806 -0.39953038 0.48815772 1.4322191 0.6828977 -0.5870346 -0.6311018
647 -0.45952305 1.1834341 0.6143574 -0.31967297 -0.06536722 0.46214545 0.58599603 0.948233 0.5374959 0.9679217 0.42256522 0.22395603 0.5371609 -0.30325168 -0.035193503 -0.75603515
437 -0.27086675 0.45977107 0.38264796 0.32123324 -0.4082966 0.3714945 0.32936665 0.062789194 1.4105809 0.76233447 -0.17556489 -0.13901645 0.4405171 -0.074882716 0.11825327 -0.1539247
328 -0.5096259 0.2910338 0.5515949 -0.38136834 0.011489293 0.19759253 0.38888267 -0.21402355 1.4044757 1.0138086 0.80743897 0.38005027 0.52216524 -0.1679688 -0.028390372 0.16370757
761 -0.6907761 0.29452822 0.83868325 -0.16347161 0.52837086 -0.040468052 -0.21873291 -0.83895844 -0.29688168 0.85715145 0.119230606 -0.09250062 0.39733568 0.97543573 -1.3773639 -0.3984141
527 -0.3497958 -0.2785851 0.0563365 1.2650238 -0.52873224 0.048701882 -0.009589376 0.41696674 0.19706902 1.1107072 0.5013773 -0.41400215 -0.39965343 1.5447862 -0.07048652 -1.0937477
795 -0.55750144 0.055441037 0.6510484 0.80413204 -0.7436367 0.10564937 -0.53444517 0.40158504 0.8214194 0.3543849 0.87641716 -0.37140933 0.038722478 1.3955504 0.7605846 -0.75859827
517 -0.40231547 -0.44096366 -0.09324769 -0.20678622 -1.0120916 -0.7447193 0.47187364 0.6750164 0.72706604 0.6826964 0.4692811 1.2152269 1.0347551 -0.14945923 -0.7659785 0.3646714
506 0.089420795 -0.7230576 -0.3975927 0.7089388 -0.8953343 -0.19527169 -0.050782986 1.4656398 -0.12852159 0.8006306 0.49241823 0.15509725 0.6117924 1.0996351 -0.24676265 -0.25286883
528 -0.4776538 -0.19621827 -0.0610673 0.30084226 -0.3508186 -0.18366419 -0.62826914 0.7927571 -0.44922397 0.31541625 -0.014773464 -0.74461335 0.9239513 1.2887207 0.4456728 -1.0995111
700 0.57602257 0.7517696 0.3448767 -0.18194805 -0.720633 -0.24289998 0.1259699 0.25302488 0.78480154 -0.8131111 -0.61124545 -0.037066456 0.81090117 1.3826056 -0.7918775 -0.0026996848
710 0.17947589 -0.9597234 0.20069027 -0.01433933 -0.46397504 -0.086681865 -0.94287777 -0.13793918 0.8671951 0.7534493 -0.97119695 0.7584777 -0.31970078 0.50239813 0.5150347 -1.045219
668 0.22246182 -0.0033294272 -0.7133961 -1.0664566 -0.0157195 -0.8534547 1.0891992 0.14475694 0.5375242 1.2789141 -0.23106407 -0.46528557 -0.16491473 0.5317243 0.2682006 -0.80007285
419 -1.0305711 -0.050286442 -1.1392205 0.18264973 -0.6164248 0.22986582 -0.72968143 -0.42751935 0.51188594 0.56525934 -0.42329234 -0.5599762 0.4545459 0.76443666 -1.0832901 -0.45507225
611 0.40517166 0.577129 0.09289102 0.06960282 -0.8795764 -0.08319967 0.20511694 -0.2373339 1.0068922 -0.58420736 0.38677847 -0.22928652 0.8692541 1.1737119 0.32449982 -0.32278973
553 0.74984527 -0.24819863 1.1975361 -0.29317978 -0.61616355 0.05131133 -0.599723 -0.15615821 -0.19103979 0.7727074 -0.7438442 -0.21822421 0.96230257 0.3812586 -0.7140197 -0.07293555
195 -0.20953794 -0.12416872 -0.6958166 -0.81497 -0.25491378 -0.7510174 0.72135407 -0.3506772 0.5904977 1.5345346 0.32096186 -0.16610317 -0.28523955 0.30277658 0.14545342 -0.6314916
17 -0.72183114 -0.24779384 0.047604173 -0.7600971 0.7899513 -1.3557285 0.8565059 0.34468877 0.3692589 0.87010115 -0.21060607 -0.36973968 0.8119062 0.51947576 0.04595219 -0.8682955
397 -0.5140078 -0.16275947 -0.38286492 -0.4780924 -0.83731794 0.6575359 -0.39702386 -0.41859716 0.50347865 0.24872325 0.19180764 0.19278404 0.0014535843 1.0376494 0.93929654 -0.45319495
